-0.8281 0.2954 -0.2271 -0.1601 -0.7507 0.6663 -0.881 -0.5423 0.8341 -0.3343 0.3723 0.3468 0.291 -0.6702 -1.1532 -0.2932 -0.0823 0.1198 0.6801 -1.0959 -1.047 -0.7425 0.4314 0.5356 0.0186 -0.7113 -0.1795 0.3206 -0.6991 -0.0818 0.4467 0.0983 -0.4015 0.1286 -0.1362 1.046 -0.816 0.5563 -0.7664 -0.0155 0.1722 -0.2996 -0.8056 0.247 -0.9511 -0.9554 0.0282 -0.1338 0.3025 0.8335 0.2941 -0.8477 0.0462 -0.1067 -0.7068 -0.2372 0.942 0.3471 0.2384 -1.3835 -0.7628 -0.6587 -0.3061 -1.127
1.1087 0.4887 -0.0673 0.7176 0.2498 -0.2226 0.4325 -1.0033 -1.1551 0.3445 -1.0118 0.6851 0.3817 -0.3062 0.2184 -0.4498 -0.806 -0.5234 -0.9691 -0.9745 -0.1967 -0.2301 -1.0583 -1.0649 -1.3869 -0.6431 -0.1293 -0.4654 -0.4276 0.9878 -0.7196 -0.3104 0.1488 -1.0043 0.218 -0.4364 -0.3089 -0.5874 -0.658 -0.7367 0.5556 0.1975 0.1666 0.2504 -0.2458 -0.2107 -0.0165 0.4718 -0.2961 -0.948 0.3193 -0.2087 -0.6729 0.1856 0.1968 -0.9731 -0.3337 0.5555 0.6999 1.1084 -0.6234 1.9065 -0.5909 0.7049
0.6319 0.4379 0.1028 -0.562 -0.3814 0.7524 0.4612 1.1746 0.316 0.1961 1.2084 0.3796 0.3666 -0.0804 0.2114 -0.8685 -0.0887 -0.1099 0.4018 -0.0375 -0.3627 -0.3751 -0.2613 -0.1702 -0.1053 -0.1254 0.2049 -0.056 -0.3065 0.7608 -0.6983 0.4671 -0.3537 -0.0737 0.5134 0.146 0.4456 -0.3016 -0.5846 0.3486 0.37 0.2742 0.6164 -0.2425 0.1706 -0.6369 -0.2349 -0.4219 0.6256 0.02 0.4516 0.4547 -0.4661 0.3347 -0.4445 -0.1613 0.1257 0.7425 -0.6457 0.0676 0.2368 1.0872 0.7776 -0.1768
0.1612 -0.7148 1.2342 0.1607 0.1142 0.2527 0.8541 0.8346 -0.2228 0.045 0.0967 0.6111 -0.5516 -0.4176 0.1893 -0.5276 0.3034 -0.5104 0.659 -0.0421 -0.0025 0.426 0.3927 -0.2672 0.7857 -0.0655 0.5897 0.9132 1.5085 0.1037 -0.2961 1.1752 0.471 0.1741 -0.543 -0.522 0.0964 -0.2 0.3945 0.2746 0.0358 -0.0767 0.5036 0.5426 0.1852 -0.05 -0.0574 -0.4392 -0.7229 0.2864 -0.1581 -0.2286 0.2305 -0.2867 0.3503 -0.3488 0.0729 -0.6601 -0.6111 -0.0258 -0.2509 0.4877 -0.428 -0.301
-0.5749 -0.0139 0.865 0.2043 0.1466 -0.1316 0.6439 0.4497 0.4286 0.0206 -0.3763 -0.2737 0.794 -0.4013 -0.6783 -0.1155 -0.1631 0.5351 0.417 -0.4597 -0.4414 0.8329 -0.7791 0.8205 -0.5229 0.0783 -0.366 0.6356 -0.9338 -0.0372 0.4412 0.1519 0.6928 0.4334 -0.596 -0.0431 0.2138 -0.8428 0.7018 0.6087 -0.3002 0.2193 0.546 0.6783 0.4324 0.6359 0.1301 -0.9558 -0.6955 -0.4206 -0.0475 1.64 0.9415 0.4472 -0.5484 0.109 -0.0914 -0.4845 -0.2191 -0.0337 -0.1946 -0.2184 0.4436 0.8878
-0.0187 -0.2297 0.8122 -0.3275 0.3901 0.7775 -0.1217 -0.0302 0.179 0.1495 0.1912 0.6379 -0.369 -0.4018 -0.1731 0.472 -0.0891 0.0013 0.7948 -0.6007 -0.5722 0.5718 0.5622 -0.2228 0.5662 0.7104 0.4597 -0.295 0.2376 -0.0435 -0.4721 0.6995 -0.0342 -0.0744 -0.2488 -0.4434 0.0013 0.9876 -0.3448 0.2813 -0.3366 -0.1657 -0.7974 -0.2148 -0.0633 -0.2454 -0.4922 -0.2862 -0.7768 0.3528 0.4081 -0.1959 -0.5781 -0.1269 -0.6997 0.0687 -0.0299 -0.4096 -0.3949 0.4693 0.3728 -0.6754 -0.7093 0.2838
0.3462 0.7536 0.594 0.354 0.1548 -0.0819 0.8604 -0.3553 0.1353 -0.0986 0.2655 -0.5727 0.7082 -0.2291 0.691 -0.1176 1.3539 -0.7712 0.1486 -0.675 1.034 -0.2571 -0.5305 -0.3564 0.0028 -0.677 0.8513 -0.5276 -1.0531 0.8333 0.2832 -0.3544 0.3914 -0.4263 -0.4076 -0.1946 -0.33 0.3856 0.4989 -0.7535 0.5136 -0.7071 0.5587 -0.8078 -0.4761 0.3536 1.1417 -0.7826 -0.6153 0.3041 -0.2642 0.594 0.1776 -0.3311 -0.4955 -0.6834 -0.3603 0.3429 0.7868 0.0793 -0.0338 -0.4281 0.0934 0.7196
0.992 0.4591 0.2656 0.1915 -0.0392 0.7719 -0.4308 -0.4334 -0.8014 -0.3192 -0.6134 -0.3034 0.5631 0.8982 0.7264 0.5744 0.039 0.5453 0.1755 0.8353 -0.3062 -0.3651 0.1412 -0.2063 -1.0081 0.6046 0.4476 -0.0172 -0.5343 0.6884 -0.5326 -0.4205 0.3824 -0.422 -0.1262 -0.5003 -0.6366 -1.0815 -0.5025 2.1089 -0.3181 -0.7041 0.5673 0.8228 -0.1391 -0.8325 -0.1281 -0.0087 -0.3292 -0.1503 0.7835 -0.1922 -0.2155 -0.9115 0.6921 0.5717 0.4291 0.4672 -0.5384 0.0407 0.1795 1.2256 0.362 0.8481
-0.2816 -0.4763 -0.2448 0.5297 0.1478 -0.725 -0.7522 -0.6309 0.0039 -0.3181 0.641 0.0614 0.5734 0.0117 -0.0079 -0.6756 -0.5789 -0.0035 -0.5323 1.2809 0.3819 1.5312 -1.0638 0.4861 0.2234 0.2516 0.9058 0.2145 0.1295 0.1694 -0.7736 0.7132 -0.3563 -0.6105 -0.0162 -0.3284 -0.201 -0.1461 0.1097 -0.705 0.4485 0.5859 0.8197 0.148 -0.3739 -0.1621 -0.3796 0.4857 -0.2556 0.2296 0.7548 0.4941 1.0257 -0.5403 -0.2484 0.9445 0.3191 0.9443 0.3379 2.6584 0.1837 0.7834 -0.3261 0.2703
-0.2369 -0.6999 0.6657 -0.3084 0.7683 0.8404 0.9337 0.3367 0.182 0.2145 -0.8735 -0.0723 0.2424 0.9968 0.1759 0.3014 -0.3881 0.6169 -0.6753 -0.1308 0.9128 0.1084 0.5659 1.4457 0.9263 0.8777 1.016 -0.1223 -0.0212 -0.7809 -0.8788 0.6799 0.6594 -0.6247 -0.2573 0.1766 0.3356 -0.2703 0.4513 0.7884 0.2594 0.2761 -0.2753 0.1759 0.161 -0.0964 -0.5912 -0.3297 -1.1366 -0.8075 0.6584 0.6905 -0.8888 0.6357 -0.6961 0.1095 0.8265 0.1548 -0.5536 -0.4807 -0.4077 -0.9098 -0.7163 -0.5098
