3744.508050233109 -37619.68774729038 -7702.564224767966 -4475.846457394989 8971.924422210452 -22416.336294236185 6890.999188268709 12385.872448183802 -3914.1018597492816 -17901.30650806515 4234388785486975.5 -1.1566328671097162e+17 -11524.785610224102 7832.721676432445 19257.167892169407 -17373.356211235205 -10939.028467379987 -1987.5574501659728 -387.6674392441268 1192.575951875757 4648.248326592356 -7743.1385143360185 7066.03502153693 -8438.12050478841 -7.257487819488368e+16 46422.07249459382 -23600.173493962368 -17649.85868380087 -20565.970516825568 -13954.507115514843 15511.609276513702 2645.9166745728035 2678.393171549747 7731.810360106988 2873.4437107450967 8725.9348734281 -19408.97770733551 -2.462908670655477e+17 7933.743981065429 -2163.7161452456403 14836.476784414383 -14417.182909049978 1514.6498189991999 -944.0129128337376 17458.611754239766 1456.0210766699279 1021.1174939455843 -21230.2987963114 -0.5469859448258951 16800.888400272146 9502.165320436057 224.8124323870854 3413.7936790028502 2.9191307322201894e+17 -12258.792324514563 -6531.692695042191 -5202.728303807263 24033.662458334213 -68.13646094490025 -16284.367920775616 -3.482175779445577e+17 -6643.145513971163 -5.692199722613836 2292.9873600615183
-3901.867786931739 37768.61833723595 6058.500660027169 -8532.660756595093 -648.7052373248132 11600.542535962924 -762.1538065281754 -6618.04363985323 4982.231844238581 1211.8571634494906 -1.7405949999107716e+16 4.336501425507627e+16 8204.718271017662 -4590.120309525883 -8875.295262846179 20289.83754129409 869.8197041786296 2062.2209717151018 3433.95283782969 -106.17006185682357 -5073.098573558975 2893.326941357131 1172.6058870493675 1621.4318505941355 1.1274791612314165e+17 -33800.153682238226 18231.293772050078 3262.737127657051 17726.71010850218 4151.200635638624 -11736.95243234188 -7272.818080996871 -7769.281316221333 -4814.150510088451 -1146.100021856981 -5827.724274650568 42.18620525501212 -4107669288832266.0 -8637.846496027441 -7801.679022734846 -12918.408410028425 4907.895460705715 -5326.227506271267 109.2481122283525 -18718.5036519507 -142.2283543867328 -1122.6424737377617 9910.349513829331 -1.9528328019611447 -20459.827423976058 -5209.261065209514 1388.132692722126 -3895.92404900051 -1.3363050604023174e+17 5470.871858813425 245.4680280008394 -13945.510014127844 -22840.438139454673 14.927312465894717 17107.655113608136 2.6061730006968192e+17 13947.327609518408 -1.8975438170142753 -1174.4103620654828
-1403.6151785762124 22831.306589114018 5045.831774968034 -9177.324285749286 5740.360021639314 -5404.366382887043 11255.209551835762 253.95202494959503 3790.4895961714838 -11408.952561152424 -2.8510512745643516e+16 -1.700926786943901e+17 -1327.9150460984156 1088.6755099420363 11126.623125497954 9867.202034702073 -6881.939286945952 1030.03043558832 184.29554489746286 2560.110934069071 2966.9021305138167 -1891.8600004647085 9564.845704854873 -2670.831833158192 1.7566927098517837e+17 14090.32485948393 6758.471749050109 -3075.569770810308 1720.2211007059293 -7314.276641292249 -449.99011281328944 1033.7167938524155 -3875.246440252856 -140.69293141243014 662.3794401496149 4809.317931123227 -13936.880949176624 -2.818952348262805e+16 -4530.548996535344 -6276.746856090988 783.1226996794761 4548.721785428792 -3347.8103193912048 -192.6452470342719 -6047.430113658837 -97.14188215039796 452.59795089312655 -2460.969592846537 1.0415378084583184 -5570.773837597664 147.63555043901457 9531.380025308728 -4535.298478687163 1.4456429031820656e+16 -5054.441337420064 -6496.037910222058 -17343.030578110487 -4628.348077030616 -54.48919367622741 4325.202093596244 1.734999658323337e+17 15886.156334978285 -1.1542475346568792 1267.2173019182392
-5342.99883917022 -9164.41053979913 -3972.2906533860973 -14806.86468949314 3067.536033456651 -4507.673903162199 15346.131029559512 -732.5783915044677 8426.19281951255 6330.565049406369 -1.6791635964970604e+16 1.213557649280159e+17 902.6490137380354 3997.96952098367 -7241.104430341534 3701.6411681460145 -5944.412966296241 -1159.9525282749182 8581.871973825917 -1983.4306294179555 -3745.0565348062414 -2952.8424029911976 15255.200689092755 -9140.36455386311 5.720677299649499e+16 -2458.155650442144 -1199.0193053729954 -26108.10813719455 282.61058155256126 -6596.361816391316 -4503.58330328269 1609.3193297426849 -3232.2229044021165 75.62596985896417 3565.2120595763486 -1120.994337881902 1737.818440315321 -2.360800752359863e+17 6391.748596880939 -7976.000107199156 -12018.340453622528 771.8712326306464 -13993.85724033613 -825.3873515284466 -5250.6812960008365 -797.886965154281 388.4568573001112 -10276.782099280936 1.2545623582526988 -9517.181546491865 1493.522499910944 -4372.558331916427 22945.74581962232 -3.530106460521139e+16 -931.7294314027009 2014.403948859115 -26603.310285935004 -8233.371765568148 44.55244631610599 -3625.3395108892305 1.442037884639346e+17 1343.9290754101132 -4.633773740696604 1140.4656216889898
2064.6652748032466 -15416.771632690863 -838.9816640152671 17396.403100208667 -8575.806456145976 2220.2078787162263 -29475.747867314964 -3387.4212553919315 -8882.487789730898 1439.3411218398505 1.7319073715521516e+16 -4.058074166569597e+16 -1446.5290575679307 -5046.8362699939435 -6531.995298389667 -10408.860369761842 9313.695347435352 122.69436496855602 -9743.17195000881 11.124370323982106 -1139.7797532081684 4455.798625903146 -21746.295926086183 3965.586520366864 -8.436295761055712e+16 -16125.357185943518 -5765.973667869068 22087.12578649189 -3243.8257786409104 8239.509349533695 -258.90098831303305 -4014.3239214784207 4131.52957878487 -2605.4981230261997 -3696.4293469566765 -4775.189927568837 6074.730166457036 2.1992175584529094e+17 -3127.359801541772 7973.536565181895 5356.374809867663 -4045.745479203706 10726.362304736302 992.0977488225813 3936.9049469135357 -1774.8947093071852 -1684.1443459565207 9591.362479834715 0.5042212655670193 6294.1716791327635 -5206.888550956868 -684.8650871783341 -18203.381324346967 -7.718920857405016e+16 2191.3208112335224 1927.2008983740695 24358.59944393344 1386.7923912429715 8.226812429537729 -1898.2841670948044 -1.0869687470909765e+17 -13305.93429758747 4.613724717698378 -2486.846409890384
930.2240699860558 -4032.8303180500498 -164.09846194503734 -13203.234331712394 7836.108548874702 -12752.550914328469 3383.069058323966 1238.7210712035626 4655.918851933416 -6110.863801837928 2925851248474218.0 7.78166210676377e+16 -2493.8548590305327 3612.200692687221 3391.8430196075374 1245.364007260399 -8116.5932910064175 -714.3948200218099 4743.6772985109155 -214.57627489247588 -4202.923174993454 -1562.5028853565018 10254.103143228525 -6769.7284271369135 -6.454094208165715e+16 9606.961486290507 -3196.642657910972 -16984.116230856278 -1881.678961030127 -7705.447371495706 -1588.7708041095016 -1180.1380637285586 -1632.710973800756 -411.98083972482294 3544.676169725593 -1767.2029454068197 -6616.331632324661 -1.4500178138560758e+17 3317.914077625005 -9956.3275668669 -3055.1357867175575 -1293.9557790775216 -8487.24962073223 -579.1016918618211 -4656.565076933806 -2043.4509968176153 -1895.932664483837 -8954.136512273457 -0.2979998472291707 141.52676092204638 1075.8778247860412 1599.7985501962899 10162.244470308824 -1.5279788200471504e+16 -7044.03334375502 -2196.963901981624 -24751.634783163903 -5206.30186666509 17.090408766250608 -2144.8593351740756 -9.137502371428653e+16 4719.015665760103 -0.8523110445927362 630.5418326034594
14066.222805179032 50052.58150195727 16023.007799544159 -2708.5454238902635 15317.3211352685 -12719.998469878145 -16955.05664533836 -313.6170806916822 -1617.4137669010427 -22476.336730813506 -1.1973655089058348e+16 -2.854914916529691e+17 -3522.8923634626926 -3065.856729160632 24145.972639333806 12677.254068403183 -4170.706749393335 2704.554704815565 -7723.941675650386 5106.277212834475 -1076.9911984833927 4230.957571080952 -6185.998031285558 8425.735736028617 8.264875518508278e+16 20777.020042241627 13162.377849123328 25035.150582427967 5149.510315467728 1201.2711992439822 -2252.8208462342513 -4987.960848708974 2098.518695708216 -4205.689364741848 -41.97527148750562 -1389.4084139726956 -12375.12087646019 1.4980341329205453e+17 -9652.340190494237 -9524.161224648202 11878.484342226304 13999.233675831827 7992.731788138287 1246.6033478416532 -9176.654664676718 -4621.475832922884 -5704.376214348839 9893.79384934701 -0.5130320804100945 15407.503802185154 -4813.876138456498 18329.412653860636 -24861.776420135022 5.223870059199379e+16 -11144.713238559889 -9194.078718960745 -6464.362836462261 -5487.612858179261 -2.672678918878576 14018.049665820385 -3.61492793111369e+16 25847.590596099206 3.231928240667828 -1673.369699850615
-8497.405875384262 -39360.48422170716 -12917.862605849241 19035.91971393023 -17793.48734607099 19589.230581637315 1648.548019941842 738.2691603317941 -6920.401679400332 18577.244073664737 3.3991322366202516e+16 1.9994559183488893e+17 3029.835111387424 -1953.3157036855416 -17900.04325754048 -14457.246212300828 12352.51774910322 -1253.8942634634786 -2137.887781944377 -3078.439822005549 5061.539063893367 -1745.6983142615152 -11214.86230051118 1243.9153278649906 -1.4234234122357514e+17 -22347.760328440523 -11569.16856587186 3825.2206248099333 -5195.974824244338 8301.626768669725 5537.763146949032 2177.6985593540776 1540.3302704645134 4569.79069898084 -4111.998139853857 2893.9067085015636 13571.979827991123 1.5015589602936003e+17 3742.363202309761 17684.511644250262 -925.1443843434465 -12792.697453361956 7165.490537075489 -49.660112860086635 15425.343496255617 5314.2127289638465 5541.166123132599 1424.7014289325864 -0.7341773165732616 -5491.728015168216 3400.0630010081736 -15610.346844214391 2317.491703459913 2.0649650808239064e+16 14153.993110783571 8351.471939119298 37697.426042430074 14902.82043513746 -11.832069418581074 -9117.571704990442 -7.0998088073262456e+16 -26402.770437915704 2.608284069876549 -49.600562548259205
-3634.7187025346416 4207.212840710721 134.3561321768284 -3895.2797561380894 -3356.305605147192 6525.938858575075 5475.255528104538 -3340.673743538471 3893.7999328129445 8551.125407629048 -5775964804855106.0 -1.3198935153830072e+16 4377.014827393754 -215.70667155473268 -9413.888156843579 4263.9263968771 808.325949341795 -178.5317607608182 4850.665077941859 -1577.6684314022334 -2541.9174036045965 1228.057144596959 4713.4313686392325 -431.3366134779864 9005654309590876.0 -13986.569824471873 5786.826294173785 -6627.4099983268625 6392.590380177861 958.8682521905325 -4742.062790421994 973.8374162640985 -2130.179753702847 -1809.0053819298391 605.9841687714057 -2959.886037994572 6374.993328357453 -1.835508740274873e+16 243.4295940162294 -647.4752498400139 -8174.660518569362 1804.9027903444676 -5865.913360697822 -345.37886845026026 -6126.598379025592 224.5869134263145 394.16026018138876 2257.190823787304 -0.7514010943546097 -8881.555664598922 -1158.6264270065692 -2879.822761093664 8815.284675007031 -1.025560517125886e+17 3701.1432694686573 3241.9705740768127 -6962.794655557317 -8691.32613776805 13.441025875715097 2233.78460836921 1.9204185125430224e+16 -275.68528362573306 -0.9699720210319757 237.50598298198992
1975.899582395631 -9263.967109480394 -1667.2383567525799 20367.72978683436 -10558.142716760649 17863.783009600484 3193.6162431471894 -224.92099368897212 -4415.356048887418 21786.696685879502 2.1987082487950068e+16 1.825441417922382e+17 3802.0787128468005 -1659.2843161246437 -7957.980170647264 -9808.699623384991 12705.507310962928 -625.5778544005459 -1799.602986158151 -1907.5993495282469 5104.11981765528 3089.0994344717533 -8879.971456518773 12191.458097570005 -7.345725048881547e+16 -2178.863611073588 1392.9763265899642 16233.487399602014 -384.72800566531106 12716.765439417559 4485.306954053903 9013.475441126744 8189.290571872562 1609.847021976796 -2251.5211688130375 1412.8053244225114 24537.024696921053 1.58143938694645e+17 4323.150032701429 18692.116263193588 4236.952517093491 6514.916975751715 9622.074698479388 588.5284756760377 13152.948884837588 2481.912921679008 2609.241013074151 9842.870904981395 1.0273076530761815 11276.294645320617 772.920885049218 -7523.978230072057 3844.2031247687346 -1.5301234521518992e+16 10912.810225353065 8639.503037776482 39220.53417080055 14760.836659951186 38.352197105083015 -4613.93974246981 5.791160426096086e+16 -15116.171148666026 4.891310852363564 -186.53376489945776
