-0.4297 0.8352 0.9535 -0.1522 0.8686 -0.9922 0.5289 0.6003 0.2506 0.8405 0.377 -0.6243 0.1065 -0.0235 0.6878 -0.0353 -0.6142 -0.0343 -0.9062 -0.4191 0.7793 -0.4349 -0.9168 0.9335 0.8225 0.667 0.4145 0.494
0.3216 -0.8317 0.0788 -0.385 0.4848 -0.9626 0.68 0.7692 -0.3183 0.8024 -0.0504 0.6388 0.3335 0.4433 -0.7087 -0.8001 0.5571 -0.0863 -0.4745 0.0594 -0.6114 0.1559 0.9099 0.2418 -0.9995 -0.3305 0.3251 0.2978
-0.693 0.9981 -0.8421 0.6859 0.0828 -0.2166 0.4017 -0.2422 0.8162 -0.9186 -0.3461 -0.6159 -0.2999 0.2639 0.0471 0.7338 0.112 0.8837 0.7439 -0.8228 0.6765 0.4123 -0.9133 -0.0382 -0.6222 0.8206 -0.2676 0.4652
-0.6314 -0.9531 -0.8769 -0.8664 -0.6286 0.5235 -0.9768 -0.5299 0.0794 -0.1695 0.8229 -6.0354305976215885 -14.68451479901672 -14.89101479901672 -15.56531479901672 -25.80894722579588 -16.156111571983015 0.3043 -0.7638 -0.766 0.4279 -0.723 0.6958 -0.809 0.2942 0.7345 -0.7783 0.4274
0.9822 -0.7634 -0.3551 0.9385 0.5326 0.173 0.5593 0.2602 0.3191 0.8464 0.7621 -31.306411264150217 -33.03024653404053 -33.602246534040525 -34.322746534040526 -33.71644653404053 -34.66054653404053 -22.4498421696046 -1.1810848931504814 0.7813 0.3175 0.2735 -0.9363 0.1216 0.5801 -0.1215 0.8985 -0.4425
-0.4113 0.3725 -0.8647 0.5809 -0.0203 0.3253 0.4576 0.5325 -0.7756 0.6269 -4.308058659964823 -32.59166379224585 -32.76844653404053 -34.047246534040525 -33.94634653404053 -33.96474653404053 -33.78414653404053 -33.38444653404053 -21.068855125098317 -0.9249697863009627 -0.9584 0.7641 -0.0824 -0.4097 0.1623 0.2185 -0.7693 -0.4285
-0.6005 -0.4425 0.4895 0.2173 -0.7165 0.9163 0.9025 0.0003 -0.4255 -0.7711 -4.032891025019663 -33.78336271656795 -34.549846534040526 -28.663302980925227 -27.158833194624265 -25.436233194624265 -26.75733534598007 -34.286146534040526 -33.28254653404053 -4.031593176375467 0.8961 -0.0759 -0.3193 0.3596 0.8447 0.6124 0.2699 -0.1906
-0.2513 -0.6789 -0.0486 0.8785 -0.223 0.3492 -0.639 -0.4879 -0.296 0.2055 -0.1066 -33.59566164089006 -23.69730872887186 -2.944955755129346 -0.1776 0.749 -0.5004827417946776 -21.336841093926704 -33.644246534040526 -16.501964100078652 0.8266 -0.5555 0.5593 -0.7341 -0.7302 -0.1685 -0.444 -0.2751
0.239 0.1483 -0.6266 0.464 -0.7881 -0.7385 -0.922 0.6202 0.459 -0.3143 0.6433 -13.501057968209473 -1.1366708619788646 -0.2372 -0.8917 -0.9896 -0.7178 -17.090481358283977 -34.41614653404053 -28.700154433342966 -3.8693921006975645 -0.4711 0.7973 0.2833 -0.2618 0.7095 0.689 -0.7408
-0.8865 -0.2326 -0.7134 -0.2855 0.7802 -0.3294 -0.6253 0.4879 -0.6475 -0.3992 -0.5645 0.3499 -0.6798 -0.2932 -0.5718 -0.1336 0.3745 -16.926981358283978 -34.15264653404053 -33.60214653404053 -16.628382433961875 -0.7664 -0.3943 -0.842 0.0755 0.1549 -0.2788 0.6517
-0.4082 -0.5929 0.7836 -0.2506 -0.4876 0.91 0.9245 0.2144 0.2535 0.1213 0.3302 0.3004 0.5795 0.2641 -0.3353 0.0613 -0.5337838174725793 -23.367495773378142 -34.09874653404053 -33.82064653404053 -17.22566840279026 -0.378 -0.4859 -0.7714 0.6804 -0.2 0.4059 -0.3891
-0.7427 -0.1993 0.5357 -0.7296 -0.251 0.4963 -0.5749 0.1105 -0.6969 -0.8991 -0.7063 0.7925 0.8954 0.0085 0.0998 0.7454 -0.048066559267257 -33.19294653404053 -33.34594653404053 -33.55124653404053 -6.8469133394162665 0.7909 0.218 -0.072 0.1911 -0.5745 0.0188 0.5874
0.7201 0.4063 -0.1343 -0.6057 -0.1135 0.2448 -0.5899 -0.1081 -0.9986 0.9732 -4.107974842492243 -8.749768018867712 -15.593995389455591 -27.780200829569427 -15.154543937037854 -8.39136801886771 -19.891004748358483 -33.157246534040524 -33.039546534040525 -33.709946534040526 -7.361313339416267 -0.7128 -0.2507 -0.7479 0.8178 -0.5872 -0.7064 0.25
-0.6327 -0.4212 -0.3859 -0.8805 -0.1549 0.9501 0.5745 -2.3399708619788644 -6.331427370587884 -6.247927370587884 -20.034390717186863 -33.47484653404053 -34.22004653404053 -33.12784653404053 -34.24874653404053 -33.68264653404053 -34.044246534040525 -32.85444653404053 -33.92404653404053 -32.94734653404053 -6.806813339416267 -0.241 0.986 0.1976 -0.6969 -0.559 -0.8139 0.8916
-0.8264 0.6606 -0.657 0.3159 0.5822 0.9101 -9.56228312571723 -24.506279590850724 -33.60554653404053 -34.279046534040525 -32.69164653404053 -33.51884653404053 -34.056046534040526 -34.31134760971843 -34.22454653404053 -33.44954760971844 -34.473846534040526 -32.82374653404053 -34.29814653404053 -33.84914653404053 -19.370619855208 0.7706 0.6083 0.8949 0.687 -0.6595 0.1258 -0.2222
0.6846 -0.8042 0.4073 0.8788 0.4623 -8.217314415094167 -31.12611018847231 -33.56744653404053 -33.443046534040526 -32.74314653404053 -33.378146534040525 -32.913046534040525 -33.070581050451175 -32.244781050451174 -34.01234545836263 -33.826146534040525 -33.922046534040526 -33.37284653404053 -34.16814653404053 -34.583646534040525 -26.327048301473788 0.4656172582053224 -0.1372 -0.2085 0.4457 -0.8094 0.1594 0.0845
-0.0768 -0.5805 0.6784 -0.9731 0.235 -21.330559427809927 -33.12544653404053 -34.45474653404053 -33.79224653404053 -33.61024653404053 -25.939964484001205 -17.361366251434458 -2.850853603773542 -5.115393176375467 -29.882773842904093 -33.91354653404053 -34.41814653404053 -33.119846534040526 -34.38344653404053 -34.65424653404053 -34.434046534040526 -21.390657276454117 -5.274545704471106 0.5912 -0.5032 -0.6545 0.8815 0.615
0.8901 0.8149 0.7743 0.1177 -0.2919 -30.49840803711651 -33.26874653404053 -33.99764653404053 -23.544378515172827 -9.08606694318981 -0.584966559267257 -0.2451 -5.637175918170145 -29.775573842904095 -34.11264653404053 -33.748446534040525 -32.90134653404053 -33.23914653404053 -13.569356892531568 -28.589956584698772 -33.15114653404053 -34.522646534040526 -12.361173075058991 -0.0108 0.1427 -0.5232 -0.4483 0.9751
0.3431 0.0021 -0.5614 0.477 0.3268 -32.06200803711651 -34.25454653404053 -28.81185766037667 -4.636576993848046 0.9754 -5.054261886998528 -28.88727169154829 -31.761226370999733 -33.35694653404053 -34.473846534040526 -32.949247609718434 -33.863846534040526 -18.422622006563802 -0.7541021513558037 -10.07735291201819 -31.05001018847231 -33.48514653404053 -28.44986954019248 0.3224 0.8514 0.6669 -0.8141 0.3087
0.435 0.7008 -0.7527 0.1067 0.6342 -17.711883509639783 -34.15504653404053 -34.16674653404053 -28.80317169154829 -26.85653427030217 -29.586141477849253 -34.02834653404053 -33.595646534040526 -32.88704653404053 -33.82974653404053 -33.18624653404053 -29.412272767226188 -12.657976302092697 -0.7583 0.1688 -9.489234578134965 -24.64056663535701 -22.497710880227665 -0.1796 0.5756 0.736 0.2899 -0.7777
-0.3574 -0.6067 -0.7 0.5159 0.1379 -2.892908283224986 -30.570239326493446 -33.30354653404053 -33.11864653404053 -32.85414653404053 -32.883946534040525 -32.873046534040526 -32.91974653404053 -33.04074653404053 -32.26437997477328 -25.59003211894636 -4.193492100697565 0.7046 0.6462 0.1586 0.6867 0.0346 -0.5137 -0.5816 0.8386 0.745 -0.5668 -0.1534
0.9694 0.6342 0.4009 -0.191 -0.7585 0.0019 -11.347738880846574 -25.933735345980068 -31.892981050451176 -33.95084653404053 -34.272646534040526 -31.687677823417474 -30.025227446677633 -15.4586986164893 -9.89343565381287 -0.3105 0.609 -0.531 0.2338 -0.8722 0.3919 -0.4586 0.0744 0.5197 0.9325 0.1672 -0.1507 0.1402
0.2209 -0.0691 -0.9344 -0.5502 -0.3792 0.7195 0.9735 -0.5497 -11.422537805168671 -15.962880282606074 -24.83459792473395 -8.42378420139513 0.6356 -0.4452 0.3935 0.2587 -0.943 -0.6602 0.8962 -0.1163 0.4 0.639 -0.4906 -0.5231 -0.4514 -0.8415 -0.4282 0.5626
0.0285 -0.902 -0.6658 0.0705 -0.286 -0.349 -0.3803 -0.3842 0.5057 0.6365 -0.4749 -0.0553 -0.2125 0.938 -0.4069 0.431 0.9247 0.8602 0.6919 -0.1475 0.5135 -0.9086 -0.2579 -0.9027 0.8464 -0.1513 -0.2348 -0.2117
0.1106 0.3519 -0.1744 -0.0789 -0.1037 0.5167 0.7021 0.1098 0.019 0.3272 0.0119 0.6211 -0.5429 -0.8595 0.1671 0.4472 0.0123 0.7433 0.7279 -0.2317 0.6496 0.4238 -0.455 -0.995 0.5541 0.0043 0.7507 0.736
0.1046 0.7413 -0.1345 -0.1584 -0.0687 0.9536 0.8072 -0.2784 -0.9897 0.3632 0.2966 -0.8811 0.2437 -0.02 0.7063 0.2674 0.1901 0.6929 -0.8347 0.5911 0.0858 -0.6087 -0.8564 0.1089 0.3722 0.8712 -0.2001 0.7416
0.0512 -0.4305 0.5143 0.4899 -0.6477 0.6878 -0.7639 0.3169 -0.7639 0.8489 -0.472 0.6103 -0.1912 0.351 -0.1154 0.2766 0.8995 -0.82 0.5543 -0.3449 0.98 -0.2501 -0.2847 -0.1109 -0.5877 0.8362 0.4587 -0.2547
0.831 -0.242 -0.0818 0.3947 0.9858 -0.1922 -0.5282 -0.7105 0.9828 0.7101 0.6197 -0.3317 0.9804 0.9091 0.8515 -0.5545 0.6551 0.6297 -0.6595 -0.0076 -0.5425 -0.7785 0.2051 0.7611 0.4243 -0.1022 -0.9203 0.9836
-0.6296 -0.5492 0.4968 -0.3319 0.4335 0.2739 0.9271 -0.1886 -0.6747 -0.875 -0.8178 -0.184 0.5606 -0.2976 -0.5168 -0.8389 -0.0817 0.4065 -0.6172 0.6763 -0.3836 -0.8411 0.8548 0.774 -0.6667 0.5647 -0.7259 -0.2929
-0.3624 0.9467 -0.7072 -0.4731 -0.4656 -0.548 -0.7046 0.1985 0.0432 0.6847 0.6627 -0.5197 0.0614 0.8128 0.0182 -0.8999 0.0837 0.2572 -0.0239 -0.7325 0.3667 0.745 0.3901 -0.5832 0.7271 0.6796 -0.9176 -0.139
0.7997 0.5539 -0.4115 0.9772 0.5302 -0.9897 0.3591 -0.1101 0.2446 -0.9709 0.4528 0.1788 0.6911 0.853 -0.1192 0.7593 0.7913 -0.7535 0.5886 0.3026 -0.8112 -0.0563 0.0713 -0.0089 -0.7481 0.97 0.542 0.6685
-0.4872 0.2023 -0.3298 -0.554 0.8555 -0.3916 -0.0511 -0.3508 -0.6585 -0.5301 0.2638 0.94 -0.1706 -0.498 0.1054 -0.9088 -0.7982 -4.148077558239543 -263.3502783463684 -563.8282301416623 -490.4219720229309 -311.40845790610945 -36.03648466980579 -2.5246887791197716 0.3542 -0.9114 0.6867 0.5848
0.9945 0.4345 0.8535 -0.4379 0.2494 -0.404 0.4947 -0.3273 0.0409 0.9387 -0.4973 4.892158893851279 23.90934815219938 24.501548152199383 23.911648152199383 13.18606635659019 -16.863723442511212 -185.67929167506108 -597.0691260323483 -558.7796652701685 -561.0359829902136 -559.3118282499506 -550.2969156247299 -20.478491391042372 -0.4877 0.8937 0.7958 0.5873
-0.7372 0.6305 -0.7582 -0.3129 -0.3772 -0.1859 -0.2883 0.3988 -0.0501 23.493448152199385 47.76823304710234 49.09969630439877 50.16677575132441 50.61867575132441 51.59507575132441 36.11220235880657 -113.7716688480882 24.032048152199383 -176.5392654004858 12.009407416454202 -53.00598947897317 -357.8403246962884 -575.7063269857993 -321.42153144393365 -0.945 0.6127 0.6289 0.4269
0.2631 0.8609 0.8803 -0.5295 0.7727 -0.0957 0.051 -0.7047 24.544579780847602 49.9837860278616 50.76507575132441 50.01257575132441 38.48766748954882 32.3954710539573 1.9431915313930759 -300.88893216829683 -480.3073584996519 -163.20438326184671 43.8359374105475 32.420171053957304 11.589708261775586 -99.66721149892813 -578.6475648050538 -322.4288527960447 -0.4481 -0.3509 0.23 -0.9326
0.2409 -0.2699 0.5001 0.5655 -0.039 -0.4079 0.111 16.415867155626866 49.97785439921337 50.85767575132441 26.90981732258784 7.115886159054344 3.2180691703884587 -54.481896891436776 -349.4735823493713 -573.3109791675219 -500.5896895986349 -78.01323346146026 6.1788434548322755 0.7096 0.5474 -0.5533 -562.8214413625425 -322.9227527960447 0.1665 0.1316 0.7324 -0.0568
-0.2051 -0.4614 -0.0911 0.0962 0.3272 -0.0608 0.7694 19.33260469736711 50.19937575132441 50.93777575132441 40.447020421881604 -15.657123442511212 -149.39930700525528 -539.7441403617918 -602.1441545849243 -572.5948161877396 -105.61908101234641 -0.6851 0.6404 -0.7488 0.7142 -161.05320189519054 -588.7253199215328 -322.3187527960447 0.2046 -0.5442 0.2719 0.78
-0.6449 0.0165 0.3259 -0.3636 -0.7612 -0.5133 0.43 5.147048617314098 39.81629395571522 51.08107575132441 31.385814767072954 -172.7552175166927 -601.2545545849243 -602.6111545849243 -577.9849648050538 -222.3969651239866 -0.5323 -0.566 0.2517 0.0677 0.4015 -302.97089156875006 -602.8333545849243 -322.6160527960447 0.5656 -0.1749 -0.2821 0.3644
-0.9712 -0.9401 -0.8053 -0.8387 0.1387 -0.2715 -0.3219 0.668 5.332411826184061 39.03059395571522 -244.2567097066102 -554.8499531664702 -584.9948977058347 -518.316539361041 -223.7502651239866 0.9717 0.3693 0.0175 -0.9365 -0.3271 -162.7494906743103 -585.426431142413 -601.9597545849243 -322.7806527960447 0.1402 0.8375 -0.0264 0.0938
0.1345 0.9754 -0.0659 0.4777 -0.4793 0.4778 -0.3899 -0.6388 -14.295483669055033 -166.57315938869195 -500.53761477742836 -551.6113788335999 -527.3407287271988 -121.85135012217498 -0.2312 -0.8202 -0.9566 -0.0526 -0.9692 -0.5773 -237.12279978737806 -601.8055545849243 -602.0798545849243 -322.4530527960447 -0.7751 0.6443 0.895 -0.6138
-0.0171 -0.8295 -0.9746 -0.9295 0.6971 0.8975 -0.5022 0.7019 -133.25428356274406 -603.1281545849243 -597.7735692249066 -538.651612754524 -172.38248937266218 49.73145439921337 15.180772269682222 -0.9295 -0.3388 0.1324 -0.3524 0.5764 -309.06916912698966 -602.1166545849243 -538.901851582672 -98.97738767205806 -0.7127 0.7574 -0.931 0.45
-0.3144 -0.3421 0.0491 0.6784 0.9913 0.3717 0.6041 -114.15447134111308 -543.5366291409115 -603.0824545849243 -578.2106648050537 -219.86743785878355 41.138510145344426 50.34787575132441 51.70497575132441 14.127419337349439 0.2194 -0.3728 -0.8903 -0.5549 -531.5975342509763 -602.8536545849242 -113.51987134111307 -0.9251 0.1413 0.3934 0.6736 -0.6139
0.182 0.655 0.4166 -0.4833 -0.456 0.1898 -8.716206110815492 -418.1076629098633 -601.2949545849243 -601.8189545849243 -284.8966793471192 0.459 20.703662792181714 50.02133896019438 50.687538960194374 50.4581022174908 16.238809060812258 0.3832 -0.3722 -263.45757834636834 -588.1932199215329 -440.61915268973377 -30.604707111566242 -0.8493 -0.6156 0.9697 -0.7642 -0.8463
0.5835 -0.4791 -0.3058 -0.6994 -0.0372 0.8245 -125.44226623104836 -603.1001545849243 -601.9779545849243 -543.7479291409115 -43.29970200150151 0.0947 1.0091632572964282 19.357299534885286 51.69147575132441 51.51343896019438 49.7766860278616 5.816748617314098 -67.25309178137204 -544.6813689143678 -412.40238535162365 -12.324794889935262 0.7667 0.4759 0.3162 0.8232 -0.6648 0.4413
0.0646 -0.8821 -0.4919 -0.8276 -0.5883 -7.876317331695719 -420.371851688983 -602.2089545849243 -582.2182423632933 -204.10870389669205 -0.9791 0.6358 -0.9506 -0.006636742703571785 19.285331163533503 40.611841773992644 50.47627575132441 -125.61667710986379 -524.7262852260817 -601.9073545849243 -364.91065479754616 0.0208 0.8354 -0.5213 0.4902 0.1036 -0.8897 0.4992
0.9879 0.8662 0.634 0.0091 0.7209 -15.773823442511214 -601.3457545849243 -602.5271545849243 -541.9854291409115 0.8828 -0.0869 0.6881 0.3416 0.0558 -0.0211 16.677793621793256 -17.05527412486223 -438.0626564981503 -563.4626973719127 -509.84575150703347 -87.3161927821228 -0.1214 0.1003 -0.162 0.9012 -0.2302 0.7631 -0.3568
-0.2913 0.4245 -0.8422 -0.1079 -0.3597 -16.003223442511214 -602.5190545849243 -602.8436545849243 -532.3578473453023 17.572556879089685 6.538859644461487 0.9994 -0.5248 -0.4872 -175.2558855642456 -236.24219978737807 -465.9696216390156 -552.9541318143591 -470.06385238883644 -39.27505457253863 9.960492072146373 -0.7781 0.7111 -0.8268 -0.4552 0.2558 -0.3289 0.8303
0.0351 -0.0395 -0.8303 0.8693 -0.5266 -8.64040611081549 -488.18563224947474 -582.3922917927425 -549.3241297279495 -296.6824331771903 0.0948 0.7584 0.7532 -388.5942445774167 -588.2547199215328 -601.3635545849243 -601.1749545849243 -501.47776246563967 -37.817101640205856 50.66417575132441 34.735935061863934 3.461064007906636 0.6138 0.3267 -0.7279 -0.2888 0.716 -0.22
-0.0681 0.5675 -0.5858 0.5231 -0.1149 -6.654917331695719 -433.73012421791356 -553.3464634430073 -551.6036788335999 -565.3492601408728 -531.6668762216772 -357.6565738009736 -460.9932900256076 -582.4890786984166 -598.0909273197212 -601.4186545849243 -602.3548545849243 -267.7080559046079 24.073579780847602 51.59387575132441 50.50917575132441 33.96804533840111 -0.3761 -0.4682 -0.5706 0.0876 0.0477 0.3128
0.8536 -0.1971 -0.2791 0.2685 -0.2668 -9.252206110815491 -329.27330130038166 -556.8469171743768 -551.9926788335999 -550.6660788335998 -550.8570788335999 -551.5264788335999 -552.0397788335999 -551.2408788335999 -561.3532444395798 -570.7181570648006 -569.7580886934488 -242.75230734482815 38.443072603604186 50.71867575132441 51.27167575132441 42.25165796362185 -0.9924 0.7792 0.9323 0.3478 0.7326 -0.0993
0.4621 0.1519 -0.3693 -0.7209 -0.8632 -0.5805 -1.8042887791197715 -162.1942481485808 -432.76272770253127 -555.1370889648307 -557.4458051544599 -557.2906051544599 -554.0289573361824 -550.5972788335998 -336.0965800469725 -258.1775301667953 -25.276222140863112 48.26708697220464 50.46167575132441 51.41777575132441 50.47898086537977 26.983595970476813 -0.0352 0.0739 0.6349 -0.4354 0.2726 0.4798
0.1178 0.0569 0.3389 0.684 -0.1543 -0.3594 -0.9533 -0.0267 -0.3318 13.468134727941978 0.2543 0.1887 14.980409060812258 24.14888489490296 23.71568489490296 51.89723896019437 50.46087575132441 50.43937575132441 49.71537575132441 30.153896769513487 18.90670469736711 0.2516 0.0718 0.7923 -0.3006 0.3344 -0.1245 0.2538
-0.7856 0.3289 -0.3625 0.5783 0.5767 0.1721 0.4388 0.013 -0.0551 -0.3081 0.0957 -0.1234 0.5127 0.0351 -0.6286 0.0448 0.5754 -0.5932 -0.1085 -0.3416 0.8143 0.1535 0.3853 0.1054 0.4006 0.3233 0.0052 -0.791
-0.1538 0.5483 0.701 0.4709 -0.0803 0.9667 -0.183 0.2189 0.1606 -0.4592 -0.2403 -0.324 0.9364 0.2665 0.0632 0.4975 -0.5078 -0.7807 -0.6346 0.3218 -0.02 0.1663 0.8656 0.6777 -0.6734 0.0503 0.7698 0.8308
-0.6664 0.9812 -0.5894 0.9255 0.6503 -0.3285 -0.095 -0.5738 0.3469 -0.919 0.6962 -0.3063 0.3538 -0.3784 -0.5999 -0.0537 0.0859 -0.7399 0.9363 0.4335 -0.8406 0.2741 -0.7529 -0.4511 0.5595 -0.2322 0.8923 0.9731
0.2087 -0.7509 0.6483 -0.2034 0.3313 -0.7215 0.1146 -0.596 -0.607 -0.3403 0.8484 0.0144 -0.818 0.1888 -0.0473 -0.5781 -0.2038 -0.0114 -0.2648 -0.1569 0.7085 0.7627 -0.9076 -0.6982 0.051 -0.4546 0.8819 -0.8775
0.9511 -0.2516 0.6712 -0.6113 -0.4795 -0.1322 -0.5246 0.1687 -0.9417 -0.1858 0.4039 0.0028 0.2575 -0.5107 0.8647 -0.4233 0.158 0.8497 0.7893 0.3101 -0.7925 0.5656 -0.8984 -0.7829 0.0817 -0.5633 -0.2415 0.6833
-0.9732 -0.0789 0.997 -0.9454 -0.9901 -0.0273 0.5676 0.7361 -0.2704 -0.7043 -0.9931 -0.6623 0.3353 -0.9684 -0.706 -0.0307 -0.46 0.7568 -0.4962 -0.7368 -0.9481 -0.4738 0.7625 0.7716 0.1681 -0.5734 0.8073 0.1241
-0.2912 0.7268 0.5735 0.7442 -0.7545 0.0622 0.7089 -0.2779 0.3777 0.0606 -0.958 -0.9719 -0.2845 -0.9277 0.2157 -0.3343 0.6353 0.1833 0.0652 -0.7543 0.739 -0.5664 0.3232 -0.813 0.1957 0.6537 0.5921 0.8736
-0.9858 -0.4453 0.9185 -0.453 0.2241 0.5471 -0.8624 -0.3083 -0.1559 -0.757 -0.4382 -9.418756495736663 -19.825914961144452 -19.569514961144453 -20.391314961144452 -32.2837058441544 -19.098893229903073 0.7885 -0.9366 0.0453 -0.7852 -0.159 0.5881 -0.1017 -0.182 0.4699 -0.1041 -0.7845
-0.5099 -0.4227 -0.6808 -0.8535 -0.9856 0.0127 -0.6798 0.7727 0.8052 0.4496 0.8057 -39.74103348440918 -43.47333901620054 -42.78153901620054 -42.717639016200536 -42.57993901620054 -43.10773901620054 -28.261249725639736 -1.069625293361641 -0.7462 0.1768 0.9858 -0.9456 0.2986 -0.8878 -0.4915 0.297 0.4332
-0.2354 -0.9893 0.4055 0.9212 0.7576 0.2259 -0.6377 0.777 0.8448 -0.3655 -7.5731580881857905 -43.104061543666504 -43.28623901620054 -43.73033901620053 -44.26933901620053 -43.60493901620053 -42.92153901620054 -42.714639016200536 -27.7281766114505 -2.002450586723282 -0.6585 0.8317 -0.5724 0.793 -0.9604 -0.9972 -0.7341 0.4812
0.0424 0.1682 -0.5279 -0.1411 -0.3921 0.6699 0.3286 0.1801 0.8331 0.7025 -5.2113553222901 -42.731587633252715 -42.819039016200534 -36.21385563465312 -33.711205047929845 -34.415405047929845 -34.55035286875743 -43.79003901620054 -42.95893901620053 -4.979903143117694 0.0548 0.5804 -0.9711 -0.1409 0.3921 0.5507 -0.5791 0.1045
-0.9452 -0.2104 -0.1255 0.1967 0.6894 0.8912 -0.0354 0.8026 0.45 -0.9496 -0.657 -41.89421372283891 -30.220278581121626 -1.8805497904987192 0.1184 -0.4916 0.3635225274659506 -27.591775815225944 -44.21593901620054 -20.987221289160402 -0.2191 -0.8156 -0.6499 -0.1045 0.1521 0.5324 0.1374 0.3981
-0.9889 0.3002 -0.2684 -0.2543 0.4133 0.2499 -0.158 -0.7012 0.9559 -0.3725 0.6364 -17.263591260231948 -1.0495244971370785 -0.4939 -0.7519 0.8258 0.7835 -21.921443816626358 -43.10453901620053 -38.12850978349665 -6.3309292327038955 0.6201 -0.5459 -0.0689 -0.3348 0.8174 -0.4838 -0.7438
-0.1404 -0.7375 0.7344 0.8092 0.2538 -0.5079 0.3138 0.4599 0.7563 0.1895 -0.772 -0.8772 0.259 -0.4753 0.436 -0.1038 -0.81 -21.76264381662636 -43.47803901620054 -43.26703901620053 -20.586317727040147 -0.3877 0.85 -0.3771 0.3404 -0.5156 -0.5053 0.703
-0.0755 0.57 0.3918 0.3401 0.6752 0.954 0.7707 -0.8146 0.1825 0.861 0.1243 -0.8134 0.7211 0.3265 0.992 -0.9107 -0.14955138294784498 -30.83835169531087 -42.949639016200535 -43.90973901620053 -23.369016930815583 0.9711 -0.8144 0.0407 0.095 0.4391 0.3201 -0.6089
0.6381 0.1032 -0.1462 0.9194 -0.1111 0.8324 -0.1638 -0.5443 -0.5035 0.9107 -0.6008 -0.1006 -0.2443 0.6455 0.325 0.6222 -2.073228855481894 -43.491539016200534 -43.29603901620054 -42.58353901620053 -8.651333968270713 -0.6578 -0.1787 0.8017 -0.6406 0.7671 -0.794 0.1461
0.9478 -0.6866 0.7026 -0.2584 -0.707 -0.6489 0.3486 0.6835 0.6781 -0.2051 -5.879006705237945 -11.670209848355636 -20.671444612850912 -36.251607813825515 -17.90249046400738 -12.197609848355636 -25.047396373020767 -42.93153901620053 -43.33563901620053 -43.69593901620054 -8.833833968270712 -0.2799 0.8771 -0.0658 -0.945 -0.909 -0.0775 0.9884
0.5244 -0.7747 -0.5124 0.0419 0.1825 -0.7551 -0.4662 -1.1069244971370784 -9.06073476449528 -8.942134764495279 -26.373995576796197 -42.58933901620054 -43.11073901620054 -42.71263901620054 -44.07883901620053 -43.92723901620053 -43.78703901620054 -42.54153901620053 -43.12603901620054 -42.893539016200535 -9.430833968270713 0.9269 0.1985 -0.0851 -0.7719 -0.4017 -0.3101 -0.8825
0.2072 -0.5344 0.6831 -0.0475 0.7834 0.9573 -11.819984554993994 -31.398703078258713 -43.78293901620053 -44.00713901620054 -43.22803901620054 -42.65943901620054 -43.18153901620053 -43.40421292661435 -43.680339016200534 -43.00351292661435 -42.529239016200535 -44.28513901620053 -43.40843901620053 -42.83473901620053 -23.801671079659123 -0.7652 -0.0908 0.1201 -0.2082 -0.0377 -0.2505 0.4822
0.557 0.4891 -0.41 0.7403 -0.9545 -9.869707878684508 -39.65455957399536 -43.50683901620053 -42.81533901620054 -44.342139016200534 -44.25253901620053 -42.94553901620054 -42.54378407113245 -42.82558407113245 -43.67776510578675 -42.43323901620053 -42.63693901620053 -43.87883901620053 -44.35123901620054 -43.80763901620054 -32.876479754568194 -0.2079774725340493 0.6183 -0.6205 -0.9936 -0.5495 -0.7815 -0.0737
0.1062 0.6451 0.4791 -0.9532 0.6364 -27.300572253105685 -43.40493901620053 -43.28573901620054 -44.27633901620054 -42.47453901620054 -32.72252837162034 -21.647869109987994 -2.0186019696711277 -4.830203143117695 -37.2273801317902 -42.83353901620053 -44.36713901620054 -43.96093901620054 -43.150839016200536 -42.47853901620053 -43.44813901620053 -28.026924432278086 -8.611231202375025 -0.9674 0.323 -0.1787 -0.503 0.2773
-0.1092 -0.9502 0.8621 0.1815 -0.1289 -40.74781175316778 -42.929939016200535 -44.11043901620053 -30.90812916784492 -12.720335937941844 -1.5483288554818941 0.7352 -5.9539806156517425 -37.9110801317902 -43.18823901620054 -43.56553901620053 -43.58883901620054 -42.71213901620054 -17.081517349818142 -38.27175760432424 -42.82643901620054 -42.672639016200534 -15.427065966870298 -0.9921 -0.5568 -0.2044 0.6698 0.2783
0.1389 -0.0415 -0.5833 -0.9041 -0.2949 -39.74441175316778 -42.94563901620053 -38.91333151473804 -7.315354526065537 -0.5394 -6.916379819427178 -36.2586323109626 -38.82310819104754 -43.97033901620054 -43.69513901620053 -43.39881292661434 -43.271139016200536 -25.517418900486717 -0.19024782082759184 -13.10853514171728 -40.697759573995356 -43.56953901620054 -37.47088449013501 -0.3645 -0.0364 -0.4159 -0.1816 -0.9433
0.0589 -0.501 0.2711 -0.9207 0.8778 -21.134091637453942 -42.75863901620053 -43.68043901620054 -38.21123231096259 -34.826878958343634 -39.61918289768588 -44.13613901620053 -42.97043901620053 -42.48583901620053 -42.96083901620054 -42.683339016200534 -36.54750622137641 -17.832487698111688 0.8225 -0.2267 -12.935538703837533 -33.74517619244795 -29.41792640194923 0.0707 0.0185 0.0708 -0.7667 0.9233
0.3733 0.6501 -0.2319 0.2968 -0.9151 -5.502377849756051 -39.028835076858286 -43.81703901620054 -44.105039016200536 -43.20623901620054 -42.94543901620054 -42.97543901620054 -44.254439016200536 -42.88613901620053 -42.283610160718666 -33.48373113751604 -4.732929232703896 0.4594 0.5751 0.4341 -0.6846 0.8262 0.7125 0.4924 0.4961 -0.9396 -0.584 0.2895
-0.8355 -0.8578 -0.8169 0.6481 -0.3006 -0.7824 -13.023134345492714 -35.21445286875743 -43.146184071132446 -42.57903901620054 -42.55163901620054 -41.05216233989107 -40.688582101461314 -20.18516634409231 -13.221612614251327 0.2014 -0.9743 -0.8548 -0.5477 -0.8792 -0.9438 0.9978 0.7261 0.4474 -0.1529 -0.7249 0.0004 -0.4077
-0.1269 -0.7732 0.9468 0.2613 0.8897 -0.5108 0.6412 -0.2482 -14.189160435078918 -20.77866990621255 -30.40259951613845 -10.90215846540779 0.2943 -0.6076 0.4734 -0.729 -0.198 -0.3881 -0.5588 -0.5977 0.2416 0.2897 0.4773 -0.2807 -0.3929 0.7639 -0.9432 0.1306
0.5281 0.6243 -0.0219 -0.1758 0.088 0.6254 0.3026 -0.7867 0.4281 0.6039 -0.9188 0.699 -0.9966 -0.9384 -0.0579 -0.4284 -0.5239 0.2711 -0.239 0.2969 0.3694 0.5113 -0.1393 0.4392 0.4786 -0.3636 -0.3486 -0.8683
0.1975 -0.5592 -0.4558 0.948 -0.9164 0.1813 0.0378 0.5478 -0.7808 -0.7404 -0.9457 0.6291 0.5034 0.1426 0.2971 -0.2616 0.8458 -0.2916 0.5091 0.2325 0.2425 0.0028 0.7005 -0.922 0.3673 0.2448 0.5072 -0.0964
0.385 0.8244 0.5873 -0.2282 -0.9546 -0.2204 0.758 -0.9834 0.3967 -0.1906 -0.9777 -0.141 0.8928 0.1516 -0.5297 -0.5463 -0.6038 -0.3588 -0.1445 0.1623 0.8962 0.2174 0.7321 0.5833 0.0643 0.333 0.4559 0.4538
-0.5702 -0.8863 -0.6534 0.9215 0.3923 -0.6002 0.1738 -0.068 0.8005 0.5514 -0.3629 -0.5812 0.7826 -0.4892 -0.7617 0.972 -0.6296 -0.6917 -0.0439 -0.0643 -0.7637 -0.3862 0.0564 0.3756 -0.2191 -0.1631 -0.2216 0.5336
0.9231 -0.9973 0.6234 -0.745 0.7526 0.2428 -0.923 0.0739 -0.2577 -0.7454 -0.2942 0.0431 0.2625 -0.49 0.0649 -0.4341 -0.0751 -0.3868 -0.33 -0.9314 -0.8702 0.543 0.5177 0.629 0.1857 0.088 0.8721 -0.3223
-0.3409 0.3915 0.3725 0.4215 0.6028 -0.3119 0.5654 0.0722 0.9253 0.2211 -0.7942 0.1368 0.7821 -0.0987 0.3851 0.4051 0.1902 0.002 0.0832 0.9693 -0.0198 0.8778 -0.2001 -0.1898 0.5174 0.2103 -0.6971 0.4272
0.2997 -0.4726 0.3768 -0.9553 0.7337 -0.0032 0.8332 -0.9176 0.8081 0.4282 -0.6569 0.5424 -0.8911 -0.7751 0.1546 0.3664 0.0355 -0.8384 0.0263 -0.379 0.7776 -0.0825 -0.2687 -0.2194 0.0793 0.9406 -0.1161 -0.1951
-0.967 -0.7387 -0.2052 -0.0016 -0.4166 0.4241 -0.833 -0.6468 0.1423 0.1935 0.6212 -0.0992 0.7739 -0.46 0.1567 -0.27 0.2493 0.5796 -0.3653 -0.0376 0.1051 -0.4037 -0.046 0.4744 0.7784 0.5747 -0.5653 -0.589
0.7852 -0.2594 0.7351 0.2286 -0.5296 -0.2813 -0.4513 -0.9833 -0.2936 0.9903 -0.6291 -60.29586525399806 -137.58706519384455 -136.76266519384455 -136.73966519384453 -223.76911427538562 -132.40369386735225 -0.1181 0.9444 -0.4285 -0.4582 0.3439 0.4378 0.3402 -0.4457 0.6161 -0.7719 -0.614
0.2759 -0.2896 0.3121 0.9346 0.332 0.3442 -0.2716 0.1541 0.7366 -0.2953 0.6246 -276.0063896594232 -293.46938361700575 -294.4438836170057 -294.44698361700574 -294.9717836170057 -294.6648836170057 -192.5598591213503 -5.0750305982263955 -0.1824 -0.2234 0.6326 -0.7041 -0.3722 -0.1558 0.5295 -0.4877 0.9786
0.9323 0.9537 -0.8659 -0.4629 -0.1014 0.4832 -0.4215 0.3584 -0.5867 -0.9108 -45.97228983988375 -290.10056723644084 -294.93818361700573 -295.07198361700574 -294.7178836170057 -294.3999836170057 -294.09398361700573 -293.3526836170057 -185.99011430546236 -12.50186119645279 -0.5037 0.5138 0.8572 -0.9215 -0.3902 -0.4961 -0.0237 0.2331
0.7917 0.5678 -0.0156 0.5498 -0.8464 0.5661 -0.3363 -0.9104 -0.2298 0.102 -38.034942861092475 -289.14011012761006 -293.7930836170057 -242.73966317889557 -231.28460198244278 -230.54400198244278 -233.04381620010435 -293.39238361700575 -293.67568361700575 -38.654057078754 -0.7237 -0.1545 -0.2055 -0.8062 -0.8864 0.6287 -0.7427 0.3863
0.061 0.1656 0.1677 0.4704 0.8578 -0.1239 0.0861 0.9188 -0.207 -0.563 -0.1399 -287.96665301877937 -201.06174899131082 -17.84304890350995 -0.0563 0.197 -3.13841638056487 -193.21420201251956 -294.36228361700574 -148.6745714443699 0.2864 -0.4072 0.0786 0.0506 0.3736 0.1897 0.5165 0.5496
0.1731 -0.1531 0.4341 -0.7298 -0.7535 0.9386 0.1297 -0.5025 -0.5989 -0.3762 -0.4526 -117.05105918150383 -11.952518305283553 -0.47 -0.9588 -0.8104 -0.113 -144.77285506380505 -293.67048361700574 -256.0654836470825 -37.40929996992323 0.2091 -0.3347 -0.6314 0.8506 -0.3285 -0.5882 0.2194
-0.2112 0.773 0.564 -0.6282 -0.2182 -0.8884 0.0596 -0.0396 0.0154 0.4454 -0.1377 -0.9858 0.2199 -0.0888 0.5811 0.6596 -0.5358 -145.54835506380505 -294.3712836170057 -294.0150836170057 -145.4045121726358 0.2734 0.0299 0.0007 0.0007 0.4791 0.579 0.6614
-0.5137 -0.196 -0.9486 0.0725 -0.5644 0.3567 0.6151 -0.3517 0.3773 0.0155 0.3649 0.5485 -0.0734 -0.546 -0.3839 0.7347 -4.742673489395632 -209.1812938071987 -294.42978361700574 -294.4653836170057 -152.03989987969294 -0.3907 0.7285 -0.2669 0.8932 0.2096 -0.6889 -0.7879
-0.902 0.026 -0.0626 -0.5563 -0.6238 -0.7927 -0.2068 0.6734 -0.3574 0.2608 -0.5003 -0.0528 -0.7852 0.0513 0.546 -0.7612 -7.444789869960503 -294.5804836170057 -293.5362836170057 -293.84988361700573 -63.03738163456293 -0.0658 -0.8258 0.511 0.2977 0.8188 -0.123 -0.5658
-0.4413 -0.4257 -0.069 0.3986 0.1515 -0.9377 -0.6394 0.9221 -0.7186 -0.5893 -41.46011635048811 -81.54797342924212 -137.16496735674787 -238.94874896123406 -123.59934688856097 -82.04137342924213 -173.26945094610625 -294.6683836170057 -294.56698361700575 -295.2364836170057 -64.22218163456293 -0.7239 -0.5487 0.7539 0.9834 0.4936 0.346 -0.9833
0.649 0.8803 0.4058 0.734 0.2513 -0.2889 0.2108 -13.408818305283553 -56.03189392750577 -57.07369392750577 -179.83663865316342 -293.55298361700574 -293.63518361700574 -293.62298361700573 -293.66758361700573 -294.2971836170057 -293.41168361700574 -294.1909836170057 -293.9233836170057 -293.67458361700574 -64.20118163456293 -0.0994 0.635 0.5284 -0.9075 -0.1136 -0.1959 0.3176
0.4559 0.3134 -0.7853 0.5406 0.2446 -0.9146 -75.09394283101574 -214.96496729659435 -293.7597836170057 -294.6746836170057 -294.86888361700574 -294.20038361700574 -294.32198361700574 -295.0265407258365 -293.38898361700575 -294.6378407258365 -295.05998361700574 -295.2392836170057 -294.3748836170057 -294.2217836170057 -167.33822034787983 -0.6816 -0.6352 0.5111 0.0066 0.0037 -0.9667 -0.4073
0.0404 0.8817 -0.555 -0.3627 -0.34 -65.42883874339368 -273.99303255059243 -294.12858361700575 -294.5000836170057 -294.3508836170057 -295.0124836170057 -294.4490836170057 -287.982350855876 -286.84095085587603 -293.96942650817493 -294.7102836170057 -295.16258361700574 -294.42658361700575 -294.7615836170057 -293.4035836170057 -224.6566713842164 -3.73941638056487 0.7576 -0.7253 -0.7172 0.0753 -0.2334 -0.6208
-0.7314 -0.9516 -0.2844 0.8285 0.4412 -189.28314274078545 -294.37358361700575 -293.3503836170057 -294.59898361700573 -295.15438361700575 -220.71099789482074 -150.58048566203146 -16.42773468584842 -38.683257078754 -255.08728148417913 -294.51448361700574 -293.57288361700574 -295.1245836170057 -294.5680836170057 -294.9640836170057 -294.2622836170057 -188.0443285231239 -54.64923465577166 -0.7723 0.962 0.9454 0.1003 -0.4875
0.4064 -0.5454 0.8288 0.1232 -0.3248 -272.7285183329309 -294.8965836170057 -293.49568361700574 -212.56771018776362 -80.39461632041136 -8.247789869960503 -0.4276 -43.512073459318884 -254.70208148417913 -293.58308361700574 -294.66798361700575 -294.4683836170057 -293.4194836170057 -115.19470207267307 -257.473497864744 -294.38768361700573 -293.3548836170057 -111.23862858327742 0.3865 -0.5943 -0.2008 0.7165 -0.3281
-0.3279 0.3569 -0.1444 0.9604 -0.0508 -271.35001833293086 -294.00658361700573 -259.35255497357474 -43.60083056814963 -0.4921 -50.667361166376025 -253.0847672665176 -269.7284590611968 -293.92208361700574 -294.8854836170057 -296.0097407258365 -293.8709836170057 -169.3203345655414 -2.6444142176615246 -86.8799040274685 -273.92253255059245 -293.4370836170057 -249.60615304885607 0.486 -0.8202 -0.8063 -0.8135 0.7045
0.6141 0.5903 -0.4962 -0.4092 -0.0968 -147.13806928146658 -294.97798361700575 -294.3281836170057 -252.4456672665176 -232.58305909127355 -263.2683284629704 -294.48228361700575 -294.75268361700574 -294.32248361700573 -294.71828361700574 -294.2190836170057 -254.26052437534838 -115.58079990976971 -0.0348 0.4786 -89.85786329920262 -221.82721211248227 -203.66696320897236 0.2143 0.7624 0.8391 -0.6128 -0.1563
0.2387 -0.2699 0.2104 0.4663 0.7487 -33.1453264805276 -261.0924142453089 -294.0686836170057 -295.14038361700574 -294.9654836170057 -294.2160836170057 -294.47098361700574 -294.31228361700573 -293.44838361700573 -285.5022937470452 -230.19574487361203 -38.08309996992323 0.1191 0.0282 -0.806 0.1441 -0.4259 -0.5752 0.3792 0.3541 0.4859 -0.1065 -0.2352
0.6375 0.4572 -0.5417 0.2331 0.0301 0.8969 -94.48189173452568 -233.28711620010435 -287.679350855876 -294.52848361700575 -293.46128361700573 -283.90737952938366 -271.4008161700275 -141.83633868324017 -90.85312040803338 0.9486 -0.8625 0.0542 -0.7573 0.4471 0.5108 -0.2813 0.9152 0.0677 -0.9658 0.8404 0.0326 0.8249
0.4418 -0.9736 -0.0028 -0.7993 -0.9143 0.2113 -0.3635 -0.0891 -91.78493462569489 -143.8483979549743 -212.21800802486024 -76.14719993984647 -0.2895 -0.4925 0.1655 0.8412 -0.953 -0.9614 -0.3478 -0.5052 0.4992 0.7417 -0.2765 0.414 -0.9305 0.5885 0.458 0.8231
-0.1111 -0.3686 0.8787 -0.6449 0.217 -0.8016 0.2144 0.9928 -0.1758 -0.9182 0.462 -0.0884 0.0974 0.0976 0.0462 -0.2021 -0.1253 0.3358 0.9042 0.1915 0.3956 -0.1463 0.4688 0.4643 0.134 0.8448 0.5197 -0.822
0.9038 -0.6144 -0.5765 0.3505 0.6466 0.2818 0.7059 -0.3068 0.3192 0.32 0.0191 -0.8381 -0.3314 0.0857 -0.5762 -0.9053 -0.4059 0.9792 -0.6497 0.4012 -0.6865 -0.694 -0.2984 -0.3587 -0.6535 0.4541 0.8592 0.0182
-0.7633 0.462 0.3199 0.8935 0.6868 0.2623 -0.1101 0.3588 0.4569 -0.2934 0.4224 -0.3791 -0.2445 0.0286 0.8412 0.9785 0.8656 0.4999 0.7357 0.3948 0.0005 0.4709 0.1535 0.8006 -0.8039 -0.9687 0.9932 -0.9863
-0.96 -0.5478 -0.2827 0.1229 0.9494 -0.5269 -0.2254 0.3744 0.3545 0.1196 0.1137 0.5478 0.9593 0.9507 0.3301 -0.5591 0.8571 0.0892 0.5733 -0.1939 -0.5145 0.1129 -0.6668 -0.6882 -0.5594 -0.1011 -0.8112 -0.4247
-0.1365 -0.5154 -0.3565 -0.2114 -0.0543 0.2938 -0.5736 -0.1837 -0.5944 0.4429 0.7345 0.0754 -0.405 0.8117 -0.5203 -0.9212 0.0299 -0.9245 -0.0018 -0.9078 0.985 -0.9235 0.9901 -0.9373 -0.4518 -0.1551 -0.5998 -0.3859
-0.7877 0.0065 -0.0139 -0.2642 0.4568 -0.1129 0.0529 0.5824 0.2456 -0.6178 0.7526 0.0999 0.9675 0.9737 0.3043 0.6521 -0.6186 -0.796 -0.1112 -0.4932 -0.0378 0.2007 0.8623 0.1557 -0.3402 0.9975 -0.1289 -0.4395
-0.2299 -0.1408 0.9901 0.2779 0.3008 0.4508 0.9286 -0.2091 0.4713 -0.8682 -0.6809 -0.1161 0.4169 -0.2403 0.1057 -0.8653 0.9506 -0.7097 0.3844 0.7484 0.6815 -0.2957 0.9802 -0.4671 0.0247 0.0674 -0.6582 -0.1503
-0.5539 -0.799 0.3917 0.5043 0.8811 -0.0958 0.2631 -0.3613 -0.518 -0.8783 0.9862 -0.8436 0.4636 -0.5937 0.9563 0.1878 -0.1796 0.9896 0.1343 0.7919 0.0023 0.4089 0.8 -0.0955 0.7382 -0.8475 -0.9953 0.4527
0.8001 -0.5604 -0.6835 -0.7356 0.4757 -0.3832 0.8028 0.045 0.1228 0.9452 0.4235 12.224751713639847 24.797615046106714 26.174715046106712 26.332515046106707 42.73787166284454 25.923624045373092 -0.2907 0.4328 0.252 0.8975 0.0899 0.411 0.0458 -0.0482 -0.1721 0.743 -0.0538
0.2514 0.6469 0.8754 0.8388 -0.3472 0.7857 0.6554 0.9396 0.1575 -0.9891 -0.6177 51.34709752005921 54.678376566732005 54.96567656673199 54.935476566731985 55.779276566732 55.804876566732 36.247775759012946 0.4590584285794064 -0.1576 0.2046 -0.3947 0.7937 0.2649 0.25 -0.8049 0.5383 -0.7258
0.3892 0.9263 -0.0135 -0.4715 0.3292 -0.3604 -0.6806 0.1208 0.1833 -0.0445 9.008507522658618 55.117245471975 55.014676566732 55.73277656673199 55.044776566732004 54.436676566732 55.688476566732 54.750176566732 34.483689996611105 2.789116857158813 -0.8287 -0.8703 -0.6409 -0.2343 -0.916 0.7471 -0.6129 0.7478
0.4846 -0.1175 -0.5102 0.5404 0.4656 -0.2901 0.5614 0.6814 0.4246 0.035 7.028617999322221 46.41954540847982 29.046784163384846 -44.4066110251194 -70.75695535569653 -87.46358654206693 -5.937240391405503 48.2708634932792 56.078176566732004 7.945645333144641 -0.257 -0.9702 -0.9317 -0.2943 0.5216 -0.2161 -0.0059 0.5756
-0.5173 -0.5391 -0.4989 -0.246 -0.3638 0.572 -0.6287 0.1954 -0.8325 0.8268 -52.87688480669428 -77.48008698264232 -123.50084255496628 -156.63886510821897 -161.39850406086842 -161.4083040608684 -161.84421307564745 -34.5750871145581 55.691976566732 27.79497199728888 -0.6906 0.2878 -0.9756 0.8954 0.6804 0.4444 0.9062 0.1238
0.6281 -0.8158 0.7874 -0.8302 -0.0993 -0.8743 -0.1592 -0.3597 -0.7454 -52.833384806694276 -154.19410777382043 -138.35429163432235 -159.1093636463344 -126.2697920473421 -106.46123604057897 -106.61533604057897 -162.57414417040442 -109.44073568491817 1.3493669396449235 17.966754353627458 7.677581666233432 0.4246 -28.992850345575192 -41.080472893627054 -58.865933400281016 -58.89593340028102 -0.2177 0.9386
-0.3867 -0.0869 0.3944 -0.2494 -0.3541 0.3957 0.2387 -0.5611 -47.97483816043188 -155.21483259421322 -160.50650406086842 -160.21520406086842 -82.39988374676781 -6.549671466655186 -62.18383602501674 -38.569189056304936 -144.07857276405906 -173.26201950551078 -149.86723572162984 -143.38523943458188 -47.276354003625514 -73.76429128219925 -74.05732586393798 -74.23509128219925 -75.44432586393798 -74.11149128219925 -0.9163 0.3179
-0.2345 -0.2469 0.6303 -0.4296 -0.5786 -0.8024 0.9405 -7.42463639658398 -162.02202738399964 -161.55934417040442 -161.7929441704044 -113.79664911403172 -5.933319171188488 -53.90788151996189 -74.08019128219925 -73.5357427787435 -73.79089652053105 -143.03377315781609 -181.28355888587168 -173.04351559262955 -44.63546461726553 -73.2366427787435 -74.29949128219924 -74.6835427787435 -74.32529128219925 -49.943911604356806 -0.649 0.827
-0.6112 0.8975 0.8251 0.9712 -0.8545 -0.0493 -0.0639 -72.83776563385024 -162.45524417040443 -161.6481040608684 -108.55871775691254 -5.319271466655186 -38.53785634717429 -73.29469128219925 -74.25445857306862 -62.19616873414739 -69.4008920839638 -135.3756551582691 -136.7954778397116 -64.20861220586139 0.1738929694756184 -0.6742 -0.0884 -23.567479677842453 -30.189550345575192 -6.0801706677327365 0.7009 0.471
-0.3204 -0.5066 0.7907 -0.6964 -0.5981 0.4852 0.6281 -71.88996563385024 -161.34564417040443 -161.2962040608684 -27.02879925253589 -21.68521142262862 -49.08337247515797 -28.637359497071948 -26.90834437318946 12.838322760268694 -9.814355708461356 -106.64042749413642 -105.26532749413641 -34.176961860286205 11.355782808396842 -0.9356 0.2208 -0.4192 0.4407 0.6747 -0.8001 0.0365
-0.9721 0.1621 0.5264 0.3518 0.687 -0.3208 0.8109 -36.890619742516286 -151.0142834574982 -150.17704334796218 -104.93850462669693 -19.809514715467266 -18.890282006336626 -19.204514715467248 -13.024730126017495 45.8949705651329 -98.61727281388605 -104.99632749413644 -106.74692749413643 29.55442577018245 10.978882808396843 0.3946 -0.8468 -0.2839 -0.2151 0.3843 0.2577 0.7119
0.852 0.0841 -0.7431 -0.832 0.514 0.2537 13.755299665555663 39.367482139508155 -104.74023359187211 -160.09484912363433 -179.9662588858717 -117.0587826424113 -44.266607118814406 -109.20392418571369 -108.70063635608062 -137.70099820327977 -107.75270921047004 -106.26196760367245 -101.70319613701724 39.694743883100045 31.75841094993833 0.9562 0.7589 0.9892 -0.3986 -0.1217 0.5313 -0.1228
-0.7042 0.9197 -0.4053 0.9007 0.0054 12.93124647530805 37.203808680360396 11.542268339238575 2.353607159619937 -151.31180155259574 -179.60148606720503 -174.16866689601653 -168.3935631934674 -178.49006441939684 -181.60854973411622 -150.2958684307605 -105.95576760367243 -105.86362749413644 -52.376159473846975 55.93817656673199 42.80213532975573 -0.03016890524300997 -0.1361 0.4727 -0.9185 0.4285 0.8789 -0.2122
0.2565 -0.2119 0.0414 0.2429 0.7514 34.861744664255966 -1.7403214996826648 -18.904166212011496 15.772620219557695 9.36035111384308 -56.55452958195963 -88.86994271106676 -109.72074359294045 -165.6930947754481 -133.66273618321424 -84.37567786241917 -105.61566760367245 -105.53862749413642 -51.777959473846984 54.998376566732 54.32747656673198 34.22721733043355 9.242593285060444 0.4897 -0.4661 0.8878 0.0225 0.5097
0.4778 0.3671 0.6062 0.5333 0.7711 50.21910651932559 -19.724482006336636 -19.46741471546725 4.442848955833256 14.684894427223847 1.8068258564251882 0.531 -12.391167916074458 -27.10580014263526 -19.13038200633664 41.412018684813745 -106.19486760367244 -105.62122749413643 -86.3032872809441 49.42932223432099 55.193676566732 54.41427656673199 21.208353997966668 0.2991 -0.1489 -0.4713 -0.8155 0.8666
0.6946 -0.9204 -0.8517 0.3735 -0.0468 50.8469065193256 -19.450714715467264 -25.71855687751129 -3.1311497441083898 -0.8969 4.047679352203759 5.268990912114518 -18.12460031040031 -19.503766212011506 5.15449767150583 52.53410489977684 -106.60840921047006 -130.2208058866437 -106.57160870675656 17.27661652271446 52.23643385314799 55.174976566732006 46.43923647191914 0.9805 0.367 -0.0407 0.8282 0.2817
0.9156 0.2179 0.5444 -0.3575 -0.3322 27.98986823635432 -18.492382006336634 -18.370814715467255 7.755607458567262 -6.92548876084917 -25.493677910168216 -18.608314715467266 -15.848946672470255 7.5385330053722015 54.358376566731984 38.80660377356402 -113.87531669775161 -139.21195906216812 -107.65033604057898 -0.2531 16.784783950560254 40.78086790190997 37.447828949260526 -0.0827 0.8807 0.8985 -0.0909 0.8279
-0.0886 0.933 0.4358 -0.1475 -0.9798 6.440186904565234 -12.808215405069426 -18.976066212011496 -19.92031471546725 -18.234566212011522 -18.890314715467248 -6.537224876546048 30.76614539234529 55.42627656673199 52.9650507103068 -29.041435542426285 -153.980062504171 -161.9785040608684 -106.46433604057897 0.366 -0.6177 0.5973 0.4374 -0.2726 -0.1291 -0.6421 -0.5677 0.0276
0.8025 -0.468 -0.2974 -0.623 0.7955 0.6892 10.500219447016601 -9.970760427804294 -5.7611190230629745 8.516933005372195 42.535986727810766 53.11532337648439 50.975602758391005 26.026209807774915 17.86994761747146 -71.55276563385024 -162.19974417040441 -161.93370406086842 -74.78817217057663 -0.3336 0.4035 -0.7818 0.5409 0.1835 -0.9665 -0.3958 0.5785 -0.5827
-0.0823 0.7579 -0.617 0.9759 -0.3259 -0.7141 -0.7696 -0.129 16.735074951293882 26.52607723562069 39.09941471166236 14.874463332466865 -0.1683 -0.8564 -0.1826 -71.88720574338623 -161.40938577720203 -162.69014417040444 -107.77323604057898 0.1311 -0.6058 -0.4547 -0.4271 0.9365 -0.3178 0.4118 -0.8552 -0.3499
0.2949 0.5213 -0.9684 0.9417 0.1653 -0.7317 -0.8039 0.0139 -0.1903 0.7108 0.8526 0.8336 -0.1297 -0.0323 -0.1414 -72.81136563385023 -161.65644417040443 -161.0934040608684 -107.95883604057897 0.9416 -0.4359 -0.4353 0.4833 -0.5234 -0.8796 -0.4809 -0.4355 -0.9364
0.1539 0.8333 -0.4953 -0.2455 -0.0247 0.4362 -0.3613 0.9009 -0.2669 -0.1106 0.1165 0.0176 -0.1829 -0.5751 0.0802 -48.98243816043188 -161.22344417040443 -161.51230406086842 -106.72743604057898 -0.7199 0.23 0.1391 -0.7773 0.1137 -0.4369 -0.0057 0.9851 0.5909
0.8053 -0.6736 -0.9095 -0.1718 -0.609 0.7077 0.9417 -0.0092 0.6221 0.7624 -0.264 -0.7976 -0.5868 -0.4756 -0.3818 0.9734 -129.8710803004021 -145.79507137723647 -60.59268109374225 0.2212 0.9846 0.5038 -0.6172 0.9185 -0.1139 0.9008 0.4228 0.1435
-0.2543 0.4744 0.2063 -0.4142 0.3307 -0.3252 0.2039 0.5304 0.7116 0.9142 0.2514 0.2341 -0.0438 -0.0199 0.5382 -0.7054 0.342 -0.0729 0.2779 -0.3303 -0.5147 0.9591 -0.5498 -0.6948 0.6864 -0.1914 0.05 0.515
0.3301 0.2009 -0.0513 -0.4701 0.1611 -0.7058 -0.3678 -0.9063 -0.5995 -0.2026 -0.0215 -0.8636 0.0708 -0.7285 0.3637 0.2579 -0.442 0.8524 -0.4642 0.847 0.8667 0.6678 0.2508 0.8132 0.593 0.7763 -0.171 0.6763
-0.7203 0.5522 0.2926 -0.5577 0.4599 0.7152 -0.0601 -0.854 0.5615 0.8425 -0.8217 -0.305 0.1016 0.8689 0.3084 0.2671 0.4333 -0.4716 -0.4893 -0.2829 0.5479 -0.9139 0.3407 0.9837 0.8237 0.481 -0.0275 -0.4401
-0.2286 0.6147 -0.2737 0.7465 0.9958 0.6301 -0.0991 -0.3669 -0.1907 -0.8989 -0.2205 -0.3219 -0.6942 -0.9662 0.051 -0.5034 -0.4784 -0.2967 0.032 -0.8045 0.5543 0.4282 -0.505 -0.8388 -0.8438 0.1385 -0.0391 -0.7279
0.5704 0.4973 -0.0289 -0.5814 -0.5132 -0.4087 0.4729 0.9566 0.8168 -0.8992 -0.6602 0.3921 0.4141 0.3517 0.3726 -0.3724 -0.9192 -0.5233 0.5388 0.5836 -0.8858 -0.1127 -0.0409 0.022 -0.0254 -0.8382 -0.1585 -0.5369
0.6235 0.4274 0.6994 0.2077 0.7238 0.4837 -0.6063 0.9888 0.0596 0.8817 0.7671 -46.71725661128206 -108.50202723903978 -107.69352723903978 -108.16082723903978 -175.18442275173808 -105.40885376011873 -0.0271 -0.8433 0.0599 -0.4449 -0.7279 -0.5089 0.3655 -0.7866 0.4986 0.8664 0.4328
0.8979 -0.5512 -0.6587 -0.0278 0.9513 -0.4138 0.733 0.2789 -0.958 -0.3128 0.1765 -216.7790382800861 -230.96283609856823 -231.68123609856823 -231.94483609856826 -231.61793609856824 -231.57213609856825 -153.11041037140083 -4.249957280927555 -0.6334 -0.1903 -0.6669 -0.2495 -0.4356 0.4869 -0.2892 -0.648 -0.7702
-0.6463 0.6822 -0.6143 0.6671 0.709 0.1775 0.6704 0.7101 0.7957 -0.2234 -36.464826396812924 -228.44329447025467 -232.67563609856825 -231.90363609856826 -232.60383609856825 -231.61033609856824 -231.07103609856824 -232.32923609856826 -145.56713743785923 -8.142914561855111 0.2013 0.5413 -0.6404 -0.3867 -0.56 -0.7493 0.018 0.1842
-0.6421 0.0502 -0.8228 0.1671 -0.2171 -0.2085 0.2723 -0.99 0.4752 0.4741 -29.319227487571844 -228.50453664394772 -231.48143609856825 -191.14885242082772 -181.68033785897262 -182.31703785897264 -184.29765351158667 -231.79213609856825 -232.51453609856824 -30.517443140185872 -0.842 0.0247 0.9159 -0.9761 -0.8224 0.4811 -0.7799 0.5423
0.7646 -0.7242 0.6339 -0.7873 0.0235 -0.5821 0.6889 0.6831 -0.0137 -0.2728 0.3479 -227.2566788176407 -157.85395145433486 -15.283829669089679 -0.8711 -0.4746 -2.458441628313528 -152.2836525450938 -232.00523609856825 -117.15890995028738 0.539 -0.1091 -0.1355 0.2936 0.4775 0.0358 0.6318 -0.9995
-0.8261 -0.0316 -0.2218 0.9864 -0.6841 0.4161 -0.3453 -0.5737 0.8123 0.7125 0.509 -93.08293974364308 -9.725072388162124 0.3796 -0.9308 -0.5861 0.5935 -114.52236832197386 -231.36263609856826 -201.23335078468938 -30.467685313878853 -0.0538 -0.5492 -0.583 -0.192 -0.2497 0.8602 -0.456
-0.9507 -0.2286 -0.4072 0.7006 0.2913 0.5139 0.9327 -0.9688 0.9189 -0.8648 -0.8312 -0.0664 0.9027 0.8414 -0.5747 -0.7655 0.0054 -114.93286832197386 -231.71223609856824 -231.71493609856824 -114.96292614828087 0.9787 -0.5129 -0.3362 0.7164 0.8964 -0.9502 0.2406
0.871 -0.0665 -0.6595 -0.2613 -0.9977 0.3159 0.9027 -1.0 -0.2215 -0.9584 -0.7098 0.4359 0.5612 -0.4657 -0.5628 0.9276 -2.905399454620541 -165.13912438787642 -231.54233609856826 -230.96123609856824 -121.35854125551542 0.1385 -0.0655 -0.7337 0.182 -0.4922 -0.1634 0.9379
-0.0696 0.7852 0.0044 -0.7647 0.9014 0.8036 0.7437 0.5866 0.2552 -0.7224 -0.9144 0.0408 -0.9138 0.8694 0.387 0.3111 -6.7745410829340695 -231.37123609856823 -231.39343609856826 -232.60773609856824 -49.8644982395956 0.8005 0.8254 0.6117 -0.4174 -0.1115 -0.8929 -0.4557
-0.0588 -0.5355 -0.0605 -0.6287 -0.8691 0.6526 0.9097 -0.8643 -0.6442 -0.4452 -32.499626942192386 -63.892370082378264 -107.91815321473928 -189.56243676821373 -98.18735485087765 -63.86447008237827 -134.9793969003046 -232.06613609856825 -231.43793609856826 -231.21833609856824 -49.4719982395956 -0.4091 0.037 -0.8032 -0.6274 0.7455 -0.8236 0.1632
-0.9953 -0.5259 0.3476 -0.4939 0.4733 0.9901 0.5952 -10.681972388162123 -44.946283132361025 -45.53848313236103 -140.5130120075392 -231.07273609856824 -231.66743609856826 -231.96733609856824 -231.16553609856825 -231.71333609856825 -231.81843609856824 -230.95333609856826 -232.65733609856824 -231.30953609856826 -50.4314982395956 0.5532 -0.5693 0.0473 0.8255 0.1017 -0.6031 -0.8858
0.9159 0.0619 0.8208 0.123 0.5806 0.0997 -59.47431280145071 -168.540423842497 -230.78023609856825 -232.60073609856823 -231.08693609856826 -231.76303609856825 -231.41943609856824 -232.31979392487523 -232.35013609856824 -231.71529392487525 -231.67943609856823 -231.90933609856825 -232.03183609856825 -230.87363609856826 -131.51553961937702 0.819 0.4194 -0.7848 -0.8435 0.3355 -0.4912 -0.4259
0.7369 -0.4605 -0.3966 -0.3059 -0.7084 -50.357256065902604 -216.94438045377905 -232.37663609856824 -231.84093609856825 -232.19883609856825 -232.63603609856824 -231.70233609856825 -226.34985284194119 -226.80875284194119 -229.94267827226122 -231.78673609856824 -232.26283609856824 -231.44653609856826 -232.23333609856826 -231.63913609856826 -177.3528805780451 -2.014041628313528 -0.2085 0.9994 -0.3668 -0.6144 0.2231 -0.5775
0.7655 -0.1215 -0.7781 -0.8755 -0.067 -149.11346874308728 -230.85773609856824 -231.46993609856824 -232.60623609856825 -231.31203609856826 -173.18808112342455 -118.31782560290141 -12.316114016475652 -30.593543140185872 -200.59862480898985 -231.31163609856824 -231.80323609856825 -232.29743609856826 -231.47053609856823 -232.09043609856823 -231.92653609856825 -147.43615309047325 -43.69429933035451 -0.2786 -0.3415 0.7401 -0.2808 0.1822
0.809 0.2066 -0.6679 0.8321 -0.5618 -214.743764801165 -232.70633609856824 -232.02243609856825 -168.49046601618997 -62.71381225607125 -7.32064108293407 -0.0824 -34.7318847684994 -200.68982480898987 -232.62503609856824 -231.27473609856824 -232.23763609856826 -232.70673609856826 -91.13578191733608 -202.5181664373034 -231.17283609856824 -230.89533609856824 -87.07188246271554 -0.4453 -0.6924 -0.3391 0.4122 -0.7129
0.6046 0.4442 0.6478 0.895 -0.4146 -213.53676480116502 -230.81493609856824 -204.64272426361043 -35.05314259480642 -0.3416 -39.47849987573397 -199.66880915637586 -211.9987809991585 -231.09133609856823 -232.52043609856824 -231.92679392487523 -232.61233609856825 -133.5777552719911 -1.776215652614027 -67.8133273633058 -216.98348045377904 -232.63543609856825 -197.8333935037618 0.5829 -0.5981 0.3741 0.8482 0.737
-0.7048 -0.883 -0.7828 0.3575 0.3875 -116.21468397458787 -232.00033609856825 -230.99113609856823 -197.99940915637586 -182.4701956852797 -207.99402371823098 -231.78833609856824 -232.32233609856826 -232.73633609856824 -232.25633609856826 -231.34653609856824 -199.14026698268287 -90.94785594163658 -0.5696 0.8709 -69.28591116531231 -174.62319677603855 -159.9581671069489 -0.7966 -0.7067 0.5519 -0.8102 0.1637
0.3623 -0.8085 0.7094 -0.6815 -0.9208 -26.569685859258318 -206.53610806561693 -232.33923609856825 -232.65873609856826 -231.63563609856826 -232.29553609856825 -230.94323609856824 -231.10373609856825 -232.71593609856825 -224.5639950156342 -180.08938003266564 -30.581285313878855 0.0906 0.961 -0.651 -0.0399 -0.9021 0.8342 0.4963 -0.4968 0.9588 -0.207 0.3314
-0.2244 -0.1022 0.0833 0.2635 -0.6752 -0.3151 -74.30244247054037 -182.83695351158667 -226.64165284194118 -231.59113609856826 -232.28873609856825 -224.00717936302016 -214.0288388254655 -110.59022669366033 -70.34796899161934 -0.9073 0.3586 -0.3483 -0.4706 -0.624 -0.937 0.9448 -0.4188 -0.4911 0.1499 -0.2571 -0.0611 0.5197
0.1905 -0.1306 0.1617 -0.9601 0.0723 -0.8286 -0.8232 0.2647 -73.92338464423337 -112.64611049566685 -166.28444004049047 -59.49797062775771 -0.8809 -0.4685 -0.5452 -0.5987 -0.3423 -0.2427 -0.9707 -0.6508 0.8289 -0.3541 0.2574 -0.8338 0.0884 -0.1821 -0.5639 0.7628
-0.9607 -0.9061 -0.1164 0.0571 -0.6877 -0.0475 0.7106 0.6101 -0.9069 0.5588 -0.3836 0.7901 -0.1203 -0.5655 -0.0775 0.7558 0.9631 0.0879 0.8429 -0.9218 0.3371 -0.9372 -0.6116 0.77 -0.2481 0.9624 0.7996 0.9706
0.5547 -0.0363 0.3565 -0.6918 0.4611 0.9144 -0.8125 0.6525 -0.0493 0.8853 0.5928 0.9811 0.4091 -0.3379 0.7156 -0.7513 -0.2833 -0.1523 -0.9028 0.9556 -0.6988 -0.857 0.4312 -0.5742 -0.9833 0.6677 0.6527 -0.1249
0.3745 0.622 0.1223 0.0468 0.4879 0.7573 0.3736 0.7514 -0.3832 0.6242 0.6185 -0.2999 -0.8626 0.5612 -0.8889 -0.5132 0.6733 -0.1922 -0.8035 0.2178 -0.5574 -0.5346 0.3155 0.3813 0.7631 -0.2036 -0.1219 0.9414
-0.2571 0.7752 -0.2829 0.9196 -0.7016 0.7937 -0.083 -0.2086 0.0192 0.4024 -0.4049 -0.3387 0.119 -0.2436 0.5375 0.394 0.6616 0.4031 -0.7912 -0.8716 0.4633 -0.7021 0.3644 -0.2204 -0.8426 0.3116 0.1715 0.3028
0.3729 0.1336 -0.2708 -0.6196 0.2669 -0.514 -0.6967 0.388 -0.3673 -0.8806 -0.7878 0.9054 0.2944 -0.226 0.2368 0.7714 0.191 -0.7373 -0.9042 0.5877 -0.5901 -0.0066 0.6064 0.0112 -0.7021 0.8198 -0.384 0.3599
0.9063 0.9482 0.0658 -0.2319 0.3387 -0.4776 -0.2121 0.256 0.4901 -0.4342 0.8592 -0.5137 0.3773 0.9597 0.6882 -0.0273 -0.1983 0.6249 0.4083 -0.3981 -0.5041 0.9567 0.8592 0.1935 -0.1884 -0.5887 0.3839 -0.6102
0.1971 -0.346 -0.0465 -0.7837 0.6163 -0.0774 0.8794 -0.9225 -0.9523 -0.9937 -0.4098 -0.2814 0.3932 0.9162 0.9247 -0.7553 -0.9236 -0.7748 0.8124 -0.9756 0.6675 -0.45 -0.0274 -0.2045 -0.1314 0.627 0.3466 0.4764
-0.8913 -0.3012 -0.1106 -0.2215 -0.1084 -0.5556 0.1334 0.1182 -0.4462 0.4836 0.5134 0.4429 0.9019 -22.724321980449165 -32.7423330802891 -7.702176911057827 0.1849 -0.0963 -0.6984 0.4818 0.0318 -15.004336380698893 -206.45922839149998 -263.82697391429554 -38.817586606954585 0.2804 0.1823 0.0532
0.1976 0.2612 -0.1919 0.9933 -0.0288 0.7746 -0.2298 -0.3906 0.0898 0.7499 -10.649512909086612 58.666731426061816 175.99701954812966 174.4559093933722 185.3982946580305 293.18975275824806 212.60770581117384 110.04795727978652 102.9523331278426 2.4974261361750365 -83.34771849173738 -207.5243634499692 -276.53735359464673 -258.39230726379657 -59.11042991043187 0.4011 0.3999 0.8197
0.7057 -0.5518 -0.3504 0.928 0.6598 0.5083 0.2556 -0.3525 -10.381512909086613 -27.44822187159073 2.900387496977622 388.96227843752547 287.08621765880616 221.40687447377846 147.96260319035878 92.06257619370646 84.09774072699409 83.797196219017 -12.449050560870226 -207.35621490906453 -382.95048974966176 -377.4653431435263 -226.26977941911167 -54.86869214493464 0.2088 -0.0095 -0.7651 -0.875
0.9661 -0.6853 -0.3105 -0.2623 -0.7921 0.3191 0.4959 0.3413 -3.2071764232974935 29.245024803950038 -51.07723144785718 170.73694888495507 103.8864931517142 78.71564417086043 -23.042310909269972 -60.98939759916438 -88.85043493025861 14.947405542354375 -125.63365960753583 -341.36937495202335 -406.2747665673465 -311.32612984488657 -107.55626435796916 -27.67108637732482 0.2594 -0.0189 0.7627 0.2405
0.8251 0.8614 -0.0247 0.4211 -0.7176 0.8063 -0.4854 -3.698089735885042 -53.73550989654191 -111.15399279102513 -184.65687743698973 133.27824161673033 157.79975720061827 71.9349794641891 -25.434368427898075 -229.77731683948025 -319.3614183704702 -207.59401742569435 -98.85994364926908 -328.15968806659356 -216.49291962873264 -38.03258033737062 -43.355055032782495 -23.538220335440386 0.8368 -0.6801 -0.3719 -0.5295
0.7173 0.1967 0.6318 0.0283 0.1267 0.7184 -1.8851709859216284 -80.90182615677288 -205.20429219631936 -154.9959648468674 -165.06369400194728 153.76843931586484 53.84570108170033 -117.69756432829845 -232.8807234383359 -449.41493673241064 -586.4588736932604 -189.761207173333 42.62543032447932 -35.79970710556576 -137.44894747376117 -103.96957382925808 -65.54905055944042 -24.738920335440387 0.5876 0.862 -0.6268 -0.9167
-0.8959 0.2584 0.061 -0.3516 -0.0449 0.8495 -27.132808178130283 -155.28667128479705 -229.5752220388919 -241.91991856157313 -226.8811973068864 20.703804559247438 -115.41412486637051 -151.3997919952023 -390.8480648355184 -462.0164794969952 -334.28686975982544 -44.960723500372026 141.58896952754523 175.49451423624288 -56.422674722642824 -144.40646690334364 -94.2633282508822 -29.352139415794156 -0.2508 -0.7029 -0.237 0.6258
-0.21 0.6865 -0.2992 -0.8482 -0.875 -11.815248908417413 -35.63732345477449 -135.78190957605898 -248.0422884726836 -247.72753381838217 -206.95588606803952 -143.847279600957 -104.17260265644401 -222.87987953335346 -372.3846159250759 -329.8076194962065 -239.380926884799 -1.151162088789178 176.8768237806131 198.36221578381557 72.29261737221265 -144.7691123324756 -139.59836389001666 -35.26758844082451 -0.2646 0.9369 0.1316 0.1355
-0.9212 -0.1224 -20.786156907635082 -0.8488 -0.7997 -14.80816211554706 -45.94024863543471 -135.71503967684077 -146.05730685597226 -194.9288348477927 -209.62926982305416 -194.11646722844932 -141.5927820412798 -252.33449850061626 -355.11360705664384 -340.0483766706547 -90.7301698231791 96.0992535345093 128.96034844601218 167.55034935274327 -4.963643693028786 -255.0445921733736 -143.734025336987 -35.40548844082451 0.3482 -0.173 -0.1328 0.0212
-0.4541 0.9396 -0.5789 -0.525 0.7854 -2.790389735885042 -50.64775485866598 -163.36402789543024 -147.9842921725015 -75.22118431913677 -86.04869032783537 -200.74840510730434 -306.48117309056914 -352.90306468268443 -333.49567482502005 -234.80312771985598 -236.1903397721742 62.3510862236728 91.89295132993797 143.86545847413015 -146.15377938833367 -265.56896889196605 -98.04969572612265 -33.63390442321948 -5.544300572187813 -0.0454 0.9269 0.975
-0.7552 -0.2136 -0.1471 0.3195 -0.954 0.5562456425796711 -44.24567685883054 -132.46103964258572 -93.4056260218811 -91.12075434973488 -108.32163345344918 -306.3208753845599 -269.50833413307606 -262.7460353544945 -105.58932248057386 -139.63946035410765 -6.188365899737882 42.649973070797834 46.90875397588031 104.98506722459166 -168.35023347764468 -145.334727295118 -75.83122553903199 -8.007929850453838 -7.451202693649927 -0.5174 -0.5313 0.4216
0.4877 -0.8649 -0.0061 -0.4025 -0.921 -50.23057067159166 -62.86128310297806 -199.1921116376416 -255.93744828440092 -384.6946889764297 -364.03316000382176 -188.6550733061603 -180.73891571620572 -99.40453188802269 -15.588235478604915 126.62089562509351 210.31525931711326 158.92580260472337 28.06855076724165 -16.79817967980551 -151.85829289169243 -91.76492808482098 -30.81260883501906 -0.7426 -6.3550026936499275 -0.4813 0.9491 -0.7825
-0.3316 0.6791 -0.222 -0.5776 0.3702 -66.3756061252803 -45.55972254323643 18.187143270651546 -136.45024470761385 -298.05309176378455 -249.5961351591503 -159.97519382881126 -40.182493825813 -252.45203837359273 -257.9969760841922 -337.2896675781291 -229.807700270815 -221.1674519780032 -164.7169649153628 -86.45294398952112 -191.88881838643562 -178.93090180685186 -16.67978377876967 0.17465522373910744 -7.463402693649927 0.0273 -0.6974 0.6519
-0.6692 0.3657 -0.0018 0.6711 -8.239945298892993 7.883243903907209 205.8785430642096 117.43450334824112 -153.0509216841409 -183.335498579605 -161.16245854637114 -157.88309421897821 -224.4696824322264 -295.19637041850586 -370.6354042580726 -316.0640850335105 -304.3771717683169 -133.26664983308734 -23.879330064129746 62.83365915017624 -77.97577389061586 -351.84584737023357 -93.77794930897754 -6.71575639773686 -0.028991035794580733 -0.8838 0.7764 0.1301
-0.3123 -0.1098 -0.7286 0.641 -20.92605389918726 168.37998455533156 203.53155197973962 -121.74999077044995 -81.1085744593972 -48.157029090328024 -131.84803880420924 -183.73307025840327 -385.5126230695617 -339.27488152004173 -77.80211268632516 -32.59895979138024 -31.47579972341635 5.09675703586494 77.84754386293594 181.86741178942202 208.87919842529655 -103.88210925992533 -218.34810854847157 -12.014970162319145 -1.6714166285012997 0.6711 -0.2298 0.325
0.0789 0.1114 0.5447 -0.029 -26.193455291122024 248.3647870368617 -48.360563706994654 -97.56470684707844 -165.01552173322403 -239.06880967936638 -235.739936346932 -33.38564153667039 37.09759024216534 101.7122558629186 22.528693804973678 14.576851274283268 35.63581456486695 72.97620829131952 -87.15114901847852 168.31805098123175 102.46398606191752 59.14650310103256 -172.89415740215725 -28.54815527609372 -7.3131026936499275 0.5897 -0.03 -0.0042
0.737 0.118 0.1941 0.5204 -26.669155291122024 199.44046846060186 -95.03613539058324 -163.3225009998687 -373.6903860266531 -313.741341168908 -5.267365885138872 245.02814904803645 247.3594004173336 48.709317302524575 -9.713964499784588 93.94027432019956 143.11317790246912 -97.40825737395225 -338.01330193136096 -187.4420440443604 93.17631900067339 70.72332320594745 120.72635263002101 -41.5894147772375 -16.37041560273654 -0.4094 -0.1346 -0.5136
-0.5561 -0.3332 -0.7097 0.1765 -26.483355291122027 1.5670186522696952 -30.145231977697442 -143.31227683084018 -121.05098247370323 -99.73381876451573 94.17730270139165 105.23290144042954 162.5218283655362 -63.1188815046348 -36.94027568271665 -89.82851008324337 -120.2114872789776 -299.14307944430453 -444.2100700917698 -431.9991513676849 -201.5176507582076 121.44439068077408 154.11013301239848 -41.1630147772375 -37.789404561800815 -0.7518 -0.815 -0.4603
-0.2255 -0.8093 -0.9811 0.5026 -12.295369811408172 -79.23030735849666 115.58891536873205 -143.1985535900452 -90.95003790337115 -78.06158878047027 -85.59992026416096 -107.59065765817826 -103.35126215089653 -161.0791119080133 -131.57417496374657 -182.03783108945854 -355.73966262276525 -285.86285678703797 -196.68223021150152 -132.6615275562575 -108.04885995210003 -145.95985624094857 -57.25320831610905 -40.7572147772375 -46.79881747088743 0.8742 0.2548 -0.9583
-0.9949 0.1094 0.4907 -0.1679 -1.0637034120480888 5.641147219104116 -13.872400538830203 -48.509470980241176 -215.68463585935112 -278.12149239557436 -324.53176921013795 -325.88290644794176 -253.34854373028807 -407.40661996938866 -412.85587194491495 -368.4388364172513 -228.74194641594102 -163.24516718127146 -122.49174873538135 -134.32389949373322 -194.79512109351046 -179.9296391683451 -44.788599450900364 -40.287314777237505 -44.96279872092401 -0.472 0.7129 0.4471
-0.0291 -0.6253 -0.5138 0.9426 -0.9886 17.87495707027931 -21.365926020590447 -106.48733036229439 -64.70645562040801 -47.65386900024651 -2.4754080573830173 -114.09906903612347 -164.62380232277363 -257.7650683211508 -254.03447004789325 -267.2112555484306 -240.3464084936381 -210.8429756888662 -241.24556014144198 -244.8369108177347 -194.59736305180874 -76.03373367435304 -40.325414777237505 -41.8718147772375 -31.391101868150887 -0.2722 -0.4657 -0.2696
0.2282 0.8071 -0.78 -0.1777 -0.8032 -0.6504 -1.8992423368314326 -18.61501925176076 -53.167647332392384 -124.48716519240114 -117.01004533752067 -68.81838597669484 -104.76089365676125 -157.1857381639575 -284.82574013694494 -365.2350247717386 -308.068139897007 -233.29988725304494 -205.99639142707179 -76.87113527835588 -47.37531841184607 0.4212 -0.9194 -0.9239 0.3181 -0.209 0.5354 -0.3776
0.628 -0.241 -0.3578 -0.8277 -0.7308 0.7531 -0.3252 0.0076 -0.6977 0.6978 -11.118212479407921 -15.183138644302453 -16.05863864430245 -15.276149188165398 -26.62024514907705 -41.485475142048784 -80.43280802405646 -65.2001910823554 -38.04738086879354 4.502639321772054 -0.2712 -0.8366 0.3125 -0.6062 -4.294495029354047 -0.0888 -0.6788 0.082
0.8015 -0.8784 -0.2159 0.0547 0.3799 -0.2508 -0.3836 -0.2449 -0.9853 -0.8633 -2.7263330076378374 -12.730748908417413 -14.621238644302451 -15.0307110324329 -9.895644913786308 -13.791223339336666 -68.89963109674389 -72.21697767182611 -29.989905874899012 0.1898 0.9919 0.116 0.3106 -0.3534 -7.612702693649927 -0.0036 0.7403 0.3188
-0.965 0.1909 -0.982 0.5672 -0.2907 -0.7713 -0.3728 -0.2155 0.4757 0.7871 0.2961 -0.4073 -0.1427 -0.5489 0.101 0.6895 0.1847 0.3966 0.9281 0.1514 -0.8866 -0.8721 -0.0071 -0.9282 -0.5672 -0.7459 0.4019 0.4052
-0.6714 0.7431 -0.6854 0.5571 0.9599 0.237 0.6392 -0.0984 -0.4175 0.8258 -0.8759 -0.8104 -0.2301 0.6319 0.3049 0.7165 0.1824 0.1962 0.6463 0.9435 0.6379 -0.5545 -0.5768 -0.7227 -0.0359 0.0744 -0.6544 0.9439
-0.3396 -0.5612 -0.1722 -0.5504 -0.25 0.0498 -0.3558 -0.2708 0.3556 0.0796 0.8129 -0.9524 -0.5118 0.0363 0.3939 0.3023 -0.2854 0.6517 -0.5593 0.5038 0.1777 -0.6191 0.1697 0.0102 0.3943 0.4448 0.1259 -0.9499
0.7471 -0.5622 0.1443 0.3665 -0.8632 0.7243 0.6274 -0.5164 0.9319 -0.4953 -0.1948 0.7047 -0.3558 -0.1485 0.6178 -0.0951 -0.5621 0.2608 0.74 0.2537 -0.8261 0.757 -0.7785 0.7314 -0.1497 0.0361 0.5246 -0.916
0.6257 -0.5748 0.3575 0.8013 0.374 0.5064 0.3014 -0.9876 -0.0708 -0.811 0.0617 0.9349 0.6628 -0.8319 -0.9063 0.5261 0.3334 -0.5783 0.4384 -0.8565 0.3564 -0.4312 0.2547 0.7553 -0.8075 0.0117 0.3494 0.1753
-0.6266 -0.2914 -0.4036 0.9588 0.1656 0.39 0.1667 -0.7917 -0.5806 0.8497 0.8764 -0.3381 0.5649 0.6543 0.4298 0.1952 -0.233 0.1836 -0.0221 -0.7382 -0.1506 0.5612 -0.606 0.8277 -0.849 0.8267 0.5489 0.667
0.041 0.6448 0.4262 -0.7552 0.4692 -0.7337 -0.9961 -0.2267 0.976 0.3594 -0.3149 0.3953 0.3092 -0.68 -0.3392 -0.4522 -0.9518 -0.1999 0.0048 -0.2946 0.1653 0.8489 0.494 -0.5418 0.6889 -0.7727 -0.0809 0.8627
-0.7417 0.961 0.4011 -0.4401 -0.4905 -0.5711 0.0792 -0.199 -0.1022 -0.1131 -0.414 -0.1716 0.5729 -0.6727 0.6339 -0.1411 0.0544 -0.8611 -0.3163 -0.8364 0.3201 -0.5201 0.5258 -0.5188 -0.1275 -0.9668 0.0643 0.9538
0.142 -0.3149 -0.8839 -0.5217 -0.552 0.3056 0.3442 -0.278 0.7154 0.3779 -0.5863 -0.8709252395056692 -0.2897278139708159 -2.801588920052638 -3.8752336700971988 -3.655508101381633 -1.635148611742281 -1.1288182233063184 0.433 -0.6345 -0.7683 0.3041 0.8152 0.2837 0.4214 -0.8371 0.0837 0.4219
-0.0287 -0.2197 0.8699 -0.4547 -0.0387 -0.6251 -0.2948 -0.5162 -0.7754 -0.566 -0.6481556279416317 -3.8786362445623452 -5.503978090931864 -5.420723170186321 -3.9479231701863204 -4.972923170186321 -5.235978090931864 -2.9348821546798747 0.3778 -0.5375 0.2831 0.773 0.0394 0.0817 0.2469 -0.668 0.4403 -0.4604
-0.2989 0.4549 0.6204 -0.9648 0.6996 0.0145 -0.4237 -0.5721 0.5638 -1.6072556279416317 -3.516752851426194 -4.095323170186321 -5.274678090931864 -4.399918021256028 -2.7854154467908807 -2.8681154467908807 -3.9619780909318636 -4.62467842014176 -2.2416837711223443 -1.2323629733508792 0.0488 0.8552 -0.9836 -0.0001 0.0729 -0.3451 -0.7193 0.2247
-0.6061 0.8087 0.6464 -0.525 0.5113 0.697 0.3135 0.8114 -0.9696415955429301 -3.8887809946069063 -5.29712317018632 -4.137923170186321 -2.408542553565607 -0.7685421755794142 0.3215 0.2085 -3.344208101381633 -5.30702317018632 -5.66332317018632 -5.131252851426194 0.0995 -0.2095 -0.2639 0.0213 -0.8843 -0.0271 0.3197 -0.7773
0.8924 -0.8615 -0.6898 -0.0432 0.809 -0.1517 0.3696 -0.25162523950566923 -4.017130186385671 -3.7556780909318634 -5.614678090931863 -4.0209336700971985 -0.5763 0.1033 0.7025 -0.8157 -0.6481 -2.9248464152633273 -3.7629780909318638 -5.256528899153098 -0.8752 -0.6085 0.5601 0.4108 -0.8535 -0.402 -0.9131 0.4308
0.4031 0.805 0.406 -0.0973 0.306 0.2495 0.9226 -1.182386345587491 -4.656778090931864 -5.42412317018632 -3.821746415263327 -1.1647421755794143 -0.1672 -0.164 0.1015 -0.8054 -0.7045603988857325 -4.529475516466716 -4.509223170186321 -3.0959368245988297 0.4816 -0.9843 -0.8841 0.6801 -0.4229 0.0577 -0.4483 0.4247
-0.0626 -0.9017 -0.0242 -0.9933 -0.7921 0.6212 -0.8974 -2.327286345587491 -4.262778090931864 -4.694723170186321 -0.49730514893029354 0.8188 0.2576 0.566 -0.6232 0.3378 -1.6989233722366117 -4.90152317018632 -5.200823170186321 -3.45253682459883 -0.77 0.2013 0.9724 -0.2415 -0.5052 0.7776 0.1467 0.9499
0.0116 0.8131 -0.5541 0.8947 -0.648 -0.2876 -0.7876 -0.8917952290558994 -5.085978090931864 -3.8846231701863205 -2.562745128030754 0.088 -0.8483 -0.8597 0.1252 0.4047 -4.618228899153098 -4.231323170186321 -4.8804231701863205 -1.003451766243912 0.9752 -0.1191 -0.7685 -0.4606 0.0101 0.3907 -0.2036 0.2104
0.3189 -0.8891 -0.4191 -0.9507 -0.5763 -0.3365 0.5 0.6529 -4.217804946880003 -4.946778090931864 -4.4431780909318634 -3.8562381118314026 -1.287827813970816 -3.291088920052638 -1.9492889200526378 -3.668828899153098 -5.265654138658767 -4.185278090931863 -4.82503591535245 -1.3596955582657957 0.4344 0.896 0.7917 0.3288 0.4738 0.4683 -0.8855 0.5504
-0.2806 -0.5747 -0.5985 -0.9728 -0.0299 0.1441 -0.207 0.0675 -2.1019882128565484 -4.249867213034792 -4.35582317018632 -4.16302317018632 -5.336778090931864 -5.561023170186321 -4.966423170186321 -3.7549231701863204 -4.865278090931864 -4.979823170186321 -3.779015446790881 -0.7164 0.5161 -0.0379 -0.7819 -0.1109 0.4128 0.6183 -0.115 0.6551
0.923 -0.0137 -0.46 0.6597 0.383 0.4612 0.7247 -0.703 -0.9171 0.4663747604943308 -2.4665259467017586 -3.287215446790881 -3.520815446790881 -3.3677154467908808 -3.704115446790881 -3.8174154467908807 -5.514378090931864 -4.88212317018632 -3.9504154467908807 -0.0416 0.4642 0.1985 -0.9307 0.414 -0.8784 -0.44 -0.9088 -0.7374
-0.842 -0.5541 -0.1934 -0.1485 0.374 -0.5152 -0.1367 0.9285 -0.6551 -0.6433 0.9624 -0.1194 -0.0709 0.6598 -0.3854 -0.5808 -4.910278090931864 -4.87262317018632 -3.652115446790881 -0.0341 0.8758 -0.3601 -0.8054 -0.1275 0.8096 -0.2763 -0.9734 -0.4763
0.7271 -0.418 -0.8695 -0.5296 0.4842 0.5242 -0.764 0.7098 -0.1841 -0.3634 0.5543 0.725 -0.4953 -0.9887 0.1482 -0.3582 -4.539054138658767 -3.9779780909318636 -2.440015446790881 0.1481 -0.5356 0.8251 0.2829 -0.2067 0.9001 0.9644 -0.9197 -0.4441
0.4746 -0.0454 0.8025 -0.669 0.6765 0.4094 -0.3059 0.4166 -0.277 0.7078 0.9658 -0.8507 0.6162 0.7931 0.7614 -1.1400504790113384 -5.714278090931864 -5.344923170186321 -2.367615446790881 -0.1111 -0.3841 0.6085 -0.4722 0.6408 0.3088 0.4958 0.8298 -0.3895
-0.3696 0.8455 -0.1763 -0.7999 0.6195 0.7594 -0.564 0.6074 -0.9894 0.6864 0.0387 -0.3617 -0.2824 -0.6124 0.8326 -2.272386345587491 -3.800678090931864 -5.241223170186321 -3.1970154467908807 -0.5614 -0.7052 -0.1398 -0.8955 0.0765 -0.2126 0.6853 -0.8933 -0.2796
0.0615 0.4379 -0.0596 -0.4453 -0.1145 -0.9504 0.2792 0.8562 0.3563 0.48 0.6801 0.9295 -0.9811 -0.6858 0.1071 -1.121886345587491 -3.981478090931864 -3.9920231701863207 -1.3808454572406503 0.5398 -0.4353 -0.1411 -0.5287 -0.5946 -0.4167 -0.4941 0.2574 0.5316
-0.2355 -0.6021 0.7246 0.2278 0.886 0.6185 0.2926 -0.8146 0.2354 0.4166 0.6939 -0.1953 0.3468 -0.6029 -0.0342 -1.1571412663330338 -5.273654138658767 -4.428378090931863 -2.457015446790881 0.044 0.315 -0.2928 -0.2489 0.8497 0.7065 -0.1113 0.3986 -0.9234
0.977 0.6705 0.8147 0.461 0.3823 0.4358 0.5465 0.7289 0.89 0.8423 0.8591 0.9095 0.3762 -0.7184 0.3157 -2.232886345587491 -4.498378090931864 -3.9087231701863203 -2.321115446790881 -0.8108 0.3828 0.9564 0.6551 0.6927 -0.7598 0.1832 -0.6767 -0.7026
-0.0689 -0.2785 0.9048 -0.876 -0.1142 -0.9248 0.1445 0.9931 -0.5255 -0.5739 -0.9944 0.4572 -0.4491 -0.4033 0.8236 -0.4934415955429301 -5.577878090931864 -4.86762317018632 -2.535515446790881 0.8482 0.6982 0.9582 0.1353 -0.0581 0.4482 0.226 -0.3808 -0.4041
0.826 0.1988 0.5307 -0.1474 0.9755 -0.9539 -0.0615 0.7692 -0.5156 0.9159 -0.1064 0.5572 0.7992 -0.4753 -0.2528 0.0319 -3.1154081013816333 -3.2981276119205245 -2.1627259467017583 0.0291 -0.8992 0.3985 -0.6784 0.6642 -0.0051 -0.8453 0.937 0.2308
0.2871 0.7547 -0.7851 -0.856 0.1869 -0.9973 -0.3613 -0.4161 0.0262 0.9885 0.9618 0.9802 -0.9989 0.9863 -0.0344 -0.2678 -0.6311 0.6059 0.1735 -0.2442 0.4488 -0.5176 0.8904 0.4473 -0.4915 0.3176 0.1939 0.16
0.3518 0.9989 0.2414 -0.0656 0.852 -0.9252 -0.5714 0.3555 -0.9926 -0.4552 0.0762 -0.4166 -0.5474 -0.9405 -0.7029 0.1515 0.0467 -0.6698 0.6689 0.3703 -0.8453 0.0225 0.7296 -0.5072 0.7169 -0.3944 0.4095 -0.9374
0.7482 -0.0393 -0.2449 0.2762 0.816 -0.4354 -0.376 -0.6986 0.5142 0.8669 0.1215 -0.3319 0.7865 -0.302 0.1212 -0.5323 -0.0855 0.9039 -0.0611 -0.2185 0.2585 0.0107 0.7527 -0.2805 0.9839 0.0699 -0.5011 0.08
-0.4346 -0.0713 -0.6267 -0.7258 0.1232 -0.3966 -0.1686 0.9134 0.8659 -0.3699 0.0643 -0.0821 -0.4818 0.795 -0.2658 -0.3629 -0.958 0.5282 -0.3527 -0.0001 -0.0241 -0.9108 -0.7579 -0.6689 -0.5207 0.5574 -0.0039 0.499
0.6179 0.65 0.3189 -0.0146 0.0487 0.0105 -0.4099 -0.8465 -0.6179 -0.7916 0.8576 -0.2762 -0.0842 -0.2127 0.2266 -0.8703 0.5296 0.7662 -0.6184 0.5898 0.6055 -2.864836564893081 -42.242263196786205 -53.99690945635854 -7.44669025417457 0.9264 0.5068 -0.4737
0.7536 0.8632 0.0293 -0.0202 -0.9158 -0.3928 -7.668827371786865 -26.49661673382665 -46.68617255093853 -37.622547672079776 -5.68346309982843 48.14602440412748 150.0884536463771 183.32448449431837 177.41496602348104 196.9120645257426 110.06902836289092 66.11673625789095 71.56996956876876 -19.00716405245109 -74.65650974459669 -77.36975170918825 -60.42659156586217 -51.59047492314332 -12.307335381261854 0.8086 0.428 0.195
-0.8901 -0.5103 -0.2576 0.5954 0.7241 -0.7572 -27.801656694620803 -45.83258932340248 -45.05258932340248 -26.38384861685642 24.1729263942684 248.09884431003405 218.20072055748713 121.82166300458968 84.60422653921526 94.8834178440635 91.67335299685791 62.75139226542259 2.350123057058042 -35.983404577152484 -152.3279013283309 -158.30485681967167 -129.48527984718953 -23.04587014114456 0.0589 -0.6494 0.4235 -0.3443
-0.5169 0.1875 0.4839 0.4028 -0.244 -0.6714 -33.981730639097314 -56.78550441398855 -62.29813266772732 70.84956595369346 84.66238835341437 178.26508932525786 107.1378361512372 85.56918156933622 67.78873920541383 -0.9820700263441893 -18.8677564171617 64.464245681823 90.61180954075735 -14.905532311149368 -108.25530230443144 -124.63221963501819 -98.89786444943175 -44.27531452958744 0.547 0.7151 -0.6458 -0.9187
0.3811 -0.7775 0.2809 -0.7917 -0.6734 -0.2544 -6.41306422266251 -69.80878164810494 -20.187278714711546 57.352010729837474 -40.811109016015294 81.16825808704762 36.5537462102201 -96.29734253197933 -169.58398847066047 -350.01487503616636 -286.0955994619542 -148.5632429854859 159.88337029631984 9.272380151679869 -29.38033407143409 -12.139573006058999 -70.86497053943023 -41.88232556645308 0.7449598222716847 -0.7713 -0.1577 -0.3487
0.7036 0.0428 -0.0324 -0.7109 0.9857 0.8943 -0.849918296292551 -53.57169373444677 -70.69494139043906 17.912626080040752 -179.23224264154592 -133.89919275236753 -198.1576358554973 -316.3889071554727 -342.74335087853495 -444.6477227637686 -412.20327420579923 -117.59023360165455 85.71584257300835 49.35273862947951 -67.70781914595855 -66.07457018407027 -75.5622845585468 -36.6271835640111 6.27494714759585 -0.6497 0.2059 0.2262
-0.0721 0.6112 0.7507 0.6104 -0.6727 -0.6155 -22.580614843640983 -84.5075684906084 -76.81940895661671 -152.4391096339014 -241.17284591811153 -159.30652036386275 -225.977179369058 -325.16370690475947 -380.3369637587973 -372.60751555243576 -308.1411319095658 -202.82846470487993 26.16528139266206 138.95452140368377 24.64911364036099 -85.11990132788263 -148.1600598692752 -42.96521394361533 0.9688 0.7598 0.616 0.5348
-0.6578 0.3332 0.5591 0.0026 -0.4224 -19.4077494500696 -34.99532873779473 -90.49105071605962 -152.5938236900347 -231.0206327614076 -203.82057067693643 -134.26095439607556 -241.70441784551343 -358.9441246270849 -299.2201304835419 -238.5621154573077 -288.6883525191559 -153.32935124307926 110.56621989289016 212.35150904631857 128.91532324175202 -84.54799521617318 -103.46962955805427 25.81107328365742 68.65391294517096 0.6285 -0.2901 -0.4261
-0.9085 0.8526 -24.877905824662143 -0.1355 -0.4659 -22.05279702649732 -49.65999593467577 -100.72213729111627 -147.96408386628252 -224.2620741595539 -156.87459821212897 -91.75937560648542 -78.84312191268555 -120.34337890494113 -205.41750456574815 -287.62368887943643 -183.2253580438867 -39.99031280292532 89.38887475569115 84.34364747206703 -45.88123984666691 -193.99063025876268 -138.87838245155046 -46.462990769971704 43.32097187309478 0.9893 0.0101 -0.2084
-0.224 0.3431 0.9424 -0.7622 -0.1321 -5.50303355837656 -50.417367414405845 -128.5766845950304 -139.87277617682545 -110.90990038688798 -26.952678630142017 51.90503334315029 16.563168719811486 -74.55808268273996 -194.36624023917776 -333.08169523241634 -323.7054637287203 -118.38628980555728 9.364964570648525 -21.696962095382474 -168.84490161557 -328.8679409678649 -201.9455793131545 -76.61558878580524 -8.00007624213907 0.0868 -0.1087 -0.9621
-0.9659 0.7469 0.7317 -0.4796 0.4828 0.26428476067631584 -27.75804289112082 -98.12557779636538 -120.4410576029253 -94.22475983361522 -53.902972704910965 -80.46351691931325 92.67823782751921 184.6026134141011 -23.864756107178067 -98.89745663195836 -78.46924777389879 -23.98769074486181 -57.470507688594864 -64.42453132326973 -192.557929070541 -249.11339401325972 -166.02842893028398 -12.593240233477303 -11.914388447254213 -0.3319 0.1985 0.0564
0.5292 0.085 0.5728 0.6852 -0.4627 -56.631664218043476 -49.99444501508354 -235.5465082263147 -247.04846105140865 -286.7685204779285 -216.33758569346548 -11.853008632227326 102.03293096566458 154.05927034462403 112.9143573481204 169.77363533198084 76.18507585480958 90.2302359622554 -83.73364507759364 -126.92133858171799 -273.7704838468885 -246.6896031379809 -65.76465046872605 0.5525 -10.824688447254212 -0.4832 0.7755 0.1419
-0.0755 -0.4133 0.3537 0.0116 -0.7005 -67.14240552590913 -127.17314592913401 -178.09900784366494 -242.55718770685198 -128.28743797231036 -44.8602181334866 39.23925844852191 127.25382332166322 17.13104424694057 -85.29461979170604 -150.41067773518878 -157.3237922405568 -36.32315009666302 -69.24826770019206 -54.05092313477646 -256.4541200273767 -284.08501060418513 -76.44864623090008 -4.536398962442675 -10.704688447254213 0.7366 -0.6686 0.2215
-0.058 0.0521 -0.1647 0.4291 -0.0377 -38.573608862881144 -20.774247809991053 -91.64354930185095 -124.17151039091576 -50.66153942275094 -88.36178228738612 -73.9392269524564 -79.53363933472339 -123.1813123126935 -178.23395571903555 -139.04099266116063 -89.86997943829576 -74.58317835714044 -13.374361670261413 -38.175671569375595 -109.20620302774508 -205.4979062597235 -100.25008937149526 -35.31181496963838 -1.0862768338025643 0.6639 0.1345 -0.5158
-0.3779 -0.468 -0.2701 0.7765 -9.59158169669635 24.579416087705653 -15.836033849884345 -66.41952696363673 -16.023417517394222 -62.9523334677362 -181.0358414059695 -174.76994217746622 -199.2264948975413 -239.2505708650611 -231.77414374159378 -132.46602778028742 57.753749631862306 54.56632742282332 -57.70607981900028 -76.84406267465914 12.26038762335493 42.94802356997788 -91.37700623454731 -36.006220941240876 -1.7416030569688667 0.535 0.6176 -0.5917
0.1605 0.0667 -0.9037 -0.2043 -61.894619932278964 79.49453124193158 -27.87189528013117 44.66597044343913 -77.68610599307236 -190.68019475843798 -246.54091455585527 -163.86600569240736 -68.2147171828315 -101.36175924007102 -236.34878798636458 -75.88150710680559 92.95125004724285 24.468878799892607 -207.31960674490966 -82.31279511263578 91.49615771559881 191.49862546010462 -17.798036967203295 -2.7830280026988774 -10.193888447254214 0.6525 0.488 0.7516
-0.6721 0.4987 0.2708 -0.6709 -75.83037573206478 59.395173468897 5.5857893409610995 31.8918065227639 -175.70717654770405 -250.93790517649649 -130.08434995718343 17.85896107145455 -0.4055421811840496 -186.21140186441067 -222.88097716094302 -21.430011716601655 36.09034770986888 -126.50423934084323 -271.15262324376647 -91.02452020762516 150.3400064183925 176.6943585958311 150.8207987979858 -4.449026933032407 -10.168588447254212 0.4807 0.6389 -0.7441
0.4987 0.0845 -0.7668 -0.3355 -65.42369773978432 -58.721163243190134 -21.48548851215233 -106.93665332666077 -140.23640077839124 -159.01712347330874 -24.637848426414067 23.693680181973832 -24.918016589188596 -198.28616948202227 -230.26240530441453 -95.03175936334739 -81.3631495566091 -126.7399750253814 -206.2808857649757 -152.51312997543494 5.762576673894785 140.1293161799736 56.1427303251243 -22.349109244422237 -11.253688447254213 -0.5781 -11.344715090586075 -0.9489
0.6154 0.8011 0.5318 0.2583 -4.016748240179613 103.29764027888231 132.70425559131692 17.356182682631434 53.16106860330171 28.2545893840404 10.140331849615762 -117.91634445407405 -208.35425171603697 -102.004960556791 -128.90249794684468 -149.9915262690877 -285.3676942772022 -158.2181018403754 -57.762363183232374 -2.336015731776669 31.534723440416435 -51.37624729665062 -51.747463247956624 -18.36862899585674 -33.42191862842636 -24.05543018117215 -34.93331714282458 0.1897
0.0899 0.7476 -0.7514 -0.5352 -0.0515 167.41537044042548 206.208791937026 116.3144245066533 71.6905464472153 24.860172939965018 -135.65525289725593 -323.3096860046024 -309.77367360163083 -299.6936215771374 -305.3128215255494 -242.7869312006301 -198.65529993929175 -89.79669879265731 57.35463847461519 58.31860531599943 -56.652071806454565 -86.54422816583045 -43.30205336218311 -46.97933223341066 -52.75510541858086 -22.980830181172152 -11.559715090586074 -0.5677
0.6625 -0.4412 0.1666 -0.9414 -0.0382 66.99768766377986 144.09195629569925 73.65723580596625 16.804433479718192 -7.80465099962818 -49.23893962221668 -294.46442823947257 -303.80329915744136 -272.017665736948 -79.07159672684776 6.528003015009325 0.7152594884273142 -47.03554398142998 -54.56016130845036 -47.171193301749085 -112.78823981990988 -67.11395194020409 -34.48831714282458 0.6721 0.7416 0.6679 -0.5545 -0.2399
-0.0726 0.4261 0.6023 -0.0125 0.868 0.0777 -0.1514111570439347 -9.91881324180354 -24.338176849621593 -84.91215259140628 -86.82543982515907 -167.9399269678161 -181.01716844099434 -215.537105640638 -96.27981219622748 -102.91087349774048 -120.48618517293536 -88.55083972156021 -59.8704441823751 1.0377687717804989 -27.718001446370724 -0.4278 -0.7311 0.769 0.9608 0.269 -0.5686 -0.2706
-0.5968 0.3972 0.787 -0.2844 0.902 -0.2657 -0.7575 0.9528 0.1377 -0.7331 -72.8171570169703 -176.98351295480842 -177.30661295480843 -172.8418955639724 -70.89377823427877 -54.39550332964519 -66.37548567332138 -27.549022784253395 2.220787097585223 18.732938956409473 0.2871 -0.2657 -0.4016 0.841 -7.547508556482781 0.1107 0.7645 -0.1903
0.2377 0.6339 0.091 0.238 -0.1152 0.1247 0.9738 -0.2373 -0.9962 -0.836 -19.68814238259992 -171.38157939643187 -177.37291295480844 -81.9552024743447 -15.213380440714147 -18.794918294379034 -73.61264095113894 -74.1119572220139 -31.797902462406565 0.0687 -0.8316 -0.7104 0.0714 0.161 -10.133988447254213 0.0993 -0.5562 0.5225
0.5774 0.6905 -0.4853 -0.5354 0.5084 0.9434 0.2767 0.5075 -0.531 -0.2823 0.2998 -0.6581 0.5293 -0.9519 -0.1275 -0.3564 -0.2772 0.4948 0.5112 -0.899 -0.556 0.4885 0.132 -0.0423 0.3573 0.2422 -0.095 0.0746
-0.307 0.8837 -0.0413 -0.6515 -0.4897 -0.7557 0.7759 0.1291 -0.1576 0.0771 -0.4358 -0.4701 -0.9492 0.5277 0.5349 0.8419 0.815 -0.0032 -0.4758 -0.3 0.5788 -0.5988 0.1711 0.9996 0.9673 0.9709 -0.3779 -0.4316
-0.4229 0.1636 -0.9443 -0.7958 0.3609 0.4793 -0.7271 -0.0736 0.9104 0.3736 0.0642 -0.7094 -0.9311 0.592 0.0425 0.9034 0.3172 -0.9552 0.6863 0.5374 0.1488 -0.2249 -0.2574 0.2797 -0.2416 0.8455 0.3924 0.5519
-0.4314 -0.0632 -0.3389 0.3733 -0.4842 0.8334 -0.3125 -0.1955 -0.4354 -0.3288 0.5757 0.3366 0.7838 -0.5173 0.8104 0.7809 -0.1847 -0.0108 0.3062 -0.5669 0.399 -0.4075 0.0742 0.9661 -0.8662 -0.2581 -0.8846 -0.7226
-0.4881 0.4364 -0.7281 -0.2589 0.7837 0.96 -0.2375 -0.7918 0.5878 -0.7109 0.7202 0.4183 -0.3342 0.9285 0.6279 0.3717 0.6446 0.0055 -0.7237 -0.2725 -0.6565 -0.2565 -0.022 -0.4846 0.9545 -0.2363 0.3894 0.1067
-0.2943 -0.2107 -0.1657 -0.9182 -0.3595 -0.1596 -0.3114 0.4876 -0.2455 -0.7314 0.6269 -68.6522288146981 -153.22226906601674 -153.48546906601672 -153.25856906601672 -250.8392691507847 -149.212278104114 0.0529 -0.0571 -0.7064 0.0309 0.6661 -0.0225 -0.9158 -0.7093 0.902 0.0858 0.59
0.8277 0.1176 -0.6509 -0.8361 -0.9477 -0.2044 -0.1074 -0.1086 0.598 -0.7407 -0.8656 -310.00599442254895 -330.91296214968503 -329.66906214968503 -330.658762149685 -330.48516214968504 -331.55736214968505 -217.56620691881213 -7.099847252418257 0.3807 -0.4435 -0.3458 0.2669 0.9691 0.8435 0.2752 -0.0851 0.7269
0.3843 -0.6257 0.8357 -0.0507 0.4633 0.7761 -0.4847 -0.1708 0.8795 0.6208 -52.7682736685931 -326.9644755385352 -330.03636214968503 -331.21566214968504 -330.30446214968504 -331.449662149685 -330.436862149685 -330.446062149685 -208.35749902512532 -13.317794504836515 -0.4016 0.5339 0.9507 -0.7828 -0.1181 -0.6722 -0.6991 -0.1329
0.9524 0.0785 0.7861 -0.1297 0.3128 0.6087 -0.2468 0.6047 -0.726 -0.4957 -42.470039805025074 -325.39214521790103 -330.11266214968504 -271.1570412286737 -258.8669467238372 -259.43184672383717 -262.6118073651057 -329.894662149685 -330.334462149685 -43.324900446293555 0.6906 -0.0912 0.7535 0.9635 -0.0476 -0.9941 -0.72 0.9093
0.1038 0.4621 -0.6597 -0.9095 0.2461 -0.8153 0.3891 -0.2007 -0.4409 -0.1866 -0.5975 -323.89861489726684 -226.03631046174587 -21.238072077889022 -0.6005 0.4392 -4.374886611149767 -216.46527659817787 -330.523262149685 -166.2703592201003 0.6785 0.3402 -0.1824 0.0711 0.6259 0.5829 0.5607 0.8591
-0.6732 0.9913 -0.1519 0.0296 0.2888 -0.5655 -0.0261 0.0222 0.1644 -0.9266 0.6767 -131.67866666749347 -14.880624825470761 0.9539 -0.0973 0.9789 -0.2003 -163.67297260895052 -330.882462149685 -287.49749202402575 -41.958370125659314 0.3705 -0.9542 -0.4831 -0.6909 -0.8463 0.1904 0.9586
0.3535 0.8562 0.5433 -0.3467 -0.0413 -0.0169 -0.971 0.9427 -0.6796 0.761 0.7578 0.4359 -0.421 -0.8333 0.1221 0.9771 0.1335 -162.42817260895052 -329.85156214968504 -330.793262149685 -163.65370292958474 0.4204 -0.4296 -0.1209 -0.7074 -0.79 -0.2376 -0.1861
0.089 0.3863 -0.7847 0.0736 -0.8429 0.3369 0.2752 -0.9903 -0.9809 -0.4505 0.4587 -0.6672 -0.1045 -0.1064 0.4022 0.4369 -4.629016931784013 -235.35821835543263 -331.31846214968505 -331.37876214968503 -171.64528050263726 -0.6607 0.5183 0.9753 -0.0207 0.2454 0.4632 0.7994
0.9247 -0.7838 -0.5391 0.4938 -0.2796 -0.3788 -0.8963 -0.8556 0.8813 0.8724 -0.4067 -0.7329 0.8306 0.7351 0.7078 -0.7385 -8.801203542933779 -330.22296214968503 -330.74286214968504 -330.267662149685 -71.78501542584787 -0.1462 -0.2011 0.2956 -0.075 -0.1196 0.0373 -0.832
0.36 -0.3515 0.4305 0.905 -0.8955 0.5665 0.2778 -0.7469 -0.1469 0.0117 -47.29335673680908 -91.92935718310264 -155.722795035898 -270.0772805874052 -138.510844240546 -90.39515718310264 -193.90277855040753 -330.264962149685 -329.801562149685 -330.874562149685 -71.30951542584788 -0.2921 0.2059 -0.2014 0.1767 0.0313 0.7279 0.6939
0.2435 -0.8602 -0.4273 -0.2049 0.382 -0.823 -0.417 -14.204224825470762 -64.02413785279536 -63.157737852795364 -201.7574561234601 -330.10696214968505 -330.840762149685 -331.231462149685 -331.10406214968503 -331.326062149685 -329.930762149685 -330.168762149685 -329.66836214968504 -330.963062149685 -70.80321542584787 -0.3843 0.9176 0.7099 -0.5549 -0.94 0.8058 0.4768
-0.183 -0.8267 0.9371 0.422 -0.86 0.7565 -85.5748099306844 -240.03363528721664 -329.83386214968505 -330.581062149685 -329.701262149685 -330.85106214968505 -331.61856214968503 -332.0861924703193 -329.889762149685 -332.3597924703193 -329.703862149685 -330.099362149685 -329.896462149685 -330.605462149685 -187.1016312979893 0.7911 0.8109 0.4975 0.8344 0.1103 0.2349 0.126
-0.3377 -0.8064 -0.3374 0.3039 -0.787 -73.22204574648211 -308.62166410191475 -329.834262149685 -331.090962149685 -331.567262149685 -330.135362149685 -330.114562149685 -322.77188892738553 -322.3972889273855 -330.2141318290508 -331.455562149685 -330.652162149685 -330.521462149685 -329.71026214968504 -330.613262149685 -251.67979947141893 -4.660786611149767 0.9174 0.776 -0.0773 0.7439 -0.4627 0.9665
0.0681 0.4956 0.8578 0.4838 -0.0986 -212.97562030766235 -330.86016214968504 -330.94096214968505 -330.36806214968504 -330.44396214968504 -247.78248253963488 -168.99491986136877 -19.062911436620528 -44.674900446293556 -287.05886605414446 -329.700562149685 -330.81416214968505 -330.652862149685 -330.212462149685 -331.212162149685 -330.91836214968504 -210.32725966639384 -60.44428156227983 -0.1125 0.5678 0.0137 -0.8057 0.3701
-0.3147 0.0699 -0.193 -0.3277 0.5617 -306.34570346064623 -330.751862149685 -330.580562149685 -239.46130496658242 -89.1999268624684 -9.99590354293378 -0.4009 -48.18158705744332 -286.9516660541444 -329.686362149685 -329.935862149685 -330.43896214968504 -331.63216214968503 -130.3696363468592 -289.33755266529425 -331.233862149685 -331.054862149685 -124.1841194150752 0.441 -0.5709 0.9034 -0.5527 0.1633
0.5153 -0.0215 0.6514 -0.9794 -0.3355 -306.92510346064626 -330.49036214968504 -292.21678298592843 -50.330817378077576 -0.0884 -55.704464630495835 -284.5063054128759 -304.1311471701307 -329.800662149685 -330.38576214968504 -331.9563924703193 -331.366162149685 -190.89369193925782 -3.4844606412684906 -98.5351044355209 -308.46286410191476 -330.340962149685 -281.9255447716074 -0.0579 -0.7359 0.446 -0.9755 0.6618
-0.2159 -0.0127 0.1999 0.5732 0.3742 -164.614033250219 -329.90906214968504 -330.83186214968504 -282.9253054128759 -260.67217704447137 -296.9970999177125 -331.17696214968504 -331.29066214968503 -331.58566214968505 -330.527562149685 -329.87826214968504 -284.78893573351024 -128.90441037697795 0.8396 0.7397 -99.97406072603643 -249.00194318090337 -228.2203711030144 0.4604 0.1765 0.866 0.2576 0.4782
-0.3278 -0.7911 -0.2477 0.1412 0.564 -38.250753193875305 -293.805139276444 -330.62916214968504 -329.99016214968503 -331.381362149685 -330.120062149685 -330.621562149685 -330.76596214968504 -330.830662149685 -322.50295860675124 -256.9078164032029 -43.47927012565931 -0.3901 -0.383 -0.8526 0.7329 0.9707 0.3781 -0.1725 0.3351 0.8153 -0.5911 -0.0324
0.8931 -0.4495 0.2198 -0.6132 0.3832 -0.0889 -105.8001820085734 -260.76320736510564 -323.2259889273855 -330.468062149685 -330.956462149685 -319.51059796548276 -304.82507749076495 -157.87108599780072 -100.80179104667067 0.4496 0.2044 -0.8288 0.8316 -0.9055 -0.3119 -0.3256 -0.7103 0.7879 -0.109 -0.5536 -0.0138 -0.3406
-0.9166 0.8677 0.5479 -0.8148 0.2712 -0.9866 -0.4452 -0.0092 -103.29065168793916 -162.07454228831628 -238.6895789967011 -85.36554025131863 0.3063 0.1294 0.1136 -0.3535 -0.9084 0.2316 0.6749 -0.0819 -0.7384 -0.8305 -0.2982 -0.8756 -0.5265 -0.1152 -0.7588 -0.2684
-0.3101 0.9173 -0.807 0.9809 0.4413 0.887 -0.7021 0.6256 -0.5946 0.491 -0.5209 0.693 -0.5687 0.8985 -0.3617 0.4568 -0.7753 -0.461 0.9248 -0.009 0.5286 -0.6584 0.0225 0.7839 0.0647 0.4905 -0.686 0.2647
-0.4382 0.1585 0.5912 -0.3513 0.9634 0.6347 -0.4269 0.4213 0.6694 0.0082 -0.8015 0.1712 0.1311 0.636 -0.9532 0.4057 0.0785 -0.5239 -0.1301 0.0565 -0.8312 0.8835 0.0632 -0.149 -0.5853 -0.5358 -0.8756 0.9433
0.2051 -0.5907 0.5558 0.5569 0.4486 0.7603 0.2447 0.6032 -0.3739 -0.5043 0.6295 -0.149 0.884 0.2963 -0.4809 0.5763 -0.6532 -0.249 -0.5585 0.1566 -0.7804 -0.8154 -0.7039 -0.6089 0.0836 -0.0395 -0.4263 -0.6478
-0.2719 -0.2731 0.1819 0.6904 0.8607 -0.5956 -0.206 0.7104 -0.6291 -0.5061 -0.3267 -0.6658 0.1793 0.9911 -0.6619 -0.0938 0.0648 0.7645 0.1144 -0.1905 0.3394 -0.0162 0.1508 -0.7739 0.3824 -0.6482 -0.279 0.9508
-0.0355 -0.5677 0.5927 0.9589 0.6091 0.5922 0.77 0.1012 0.7768 0.867 0.6108 -0.4519 0.4997 -0.0922 -0.893 0.9219 -0.5165 -0.0695 0.5658 -0.7096 0.2893 -0.3518 -0.4788 0.927 0.5952 -0.0368 -0.1432 0.0921
-0.9763 0.6701 0.2982 0.3817 0.2305 -0.3392 -0.5005 0.3274 0.9609 0.0571 -0.7194 0.5275 -0.583 0.9471 -0.0335 -0.7607 -0.1347 -0.2839 -0.4063 -0.0504 -0.1795 -0.4645 -0.2789 -0.3563 -0.672 0.1108 0.1553 -0.0116
-0.2714 -0.7174 -0.4127 -0.4482 0.2575 -949667514.5182195 -18621346785.345615 -23363635521.95385 -4151382261.46431 -11664375036232.406 -16426041267109.076 -16040383358431.41 -4013518968341.918 121214877287174.2 148832804477097.22 -13692550917116.664 -4912199639839.576 12604198.02734222 1037648.7404010408 -1232971.442125955 -1447891.3682949103 0.5872 -0.0435 -0.4999 -0.4902 -0.3025 -0.0567 0.0693
-0.2511 -0.8372 0.9644 -0.7857 -0.69 -2993537482.0571427 -25332585502.395084 10449596006964.197 58754319374794.67 68924250708156.17 -87819410659873.47 -115040721722358.36 -96682978390160.31 36073369304302.03 -255977500052570.75 -114901022092621.56 -353173552197964.4 -476910643774402.0 -335574065714605.4 -464917275702392.0 -16284000992141.031 12672767562823.71 -4841728292362.461 -163839126085236.84 -72233092242901.86 -0.5005 0.3548 0.0566
0.4819 0.8314 -0.35 0.0878 0.2718 -11902929238795.025 -33615719348316.445 97724321392419.77 134674829017458.5 -9607320817150.281 -629855664165905.0 -873516480300404.8 -717669049283929.4 -1115969163311414.4 -1622497185795958.5 -2294326702844975.5 -2173923366792810.5 -2004051282369464.2 -1296473002449153.5 -648188397847751.0 -193235332806101.16 -105519986529183.42 -68277988479405.48 -181260806499403.25 -27669096267614.465 -1187860829998.4995 -258799741689.0681 -0.8456
-0.6645 0.5849 -0.2801 0.8991 -470909956305.574 -74864495675994.95 -154739715172703.97 -165958335465792.38 -695060169914951.8 -1340707518457109.2 -2365394219720694.5 -3258191211555615.0 -3512607344371175.0 -3923938646255201.5 -4129980691461145.0 -4447270249485941.0 -4139940562147927.5 -3181819332087761.5 -1521169969509670.0 -784626068985368.2 -570226196954253.0 -241704515531725.8 -86457196960468.17 -18321447372870.965 24095065702426.01 -278528503868.2044 232519150369.75638 292498766383.30493
-0.4366 -0.4425 -0.1793 24509677.669266507 -46341714151701.3 -506432175666867.9 -927252620295706.8 -1044621215312302.9 -1752161536861192.0 -3060490066040313.5 -3789464828914033.5 -4230349676222306.0 -5323003143754883.0 -6214418180746762.0 -5576081355145813.0 -5606466058739698.0 -5129899781331560.0 -3870320154260482.5 -900057106898775.2 -242588716325699.88 -668678855871229.5 -251098035147814.38 65233773509391.984 404909060964435.56 432205598577936.8 26015688797891.023 5714338150775.553 431704978146.6644
-0.6124 -0.7195 -124454817.08455029 26282543142.34754 -209525538396945.62 -1011468660280113.4 -1573972762393621.5 -1962146518578793.5 -2619570841748901.5 -2984656009585076.0 -1758166861762051.0 -278972335998777.38 -1005599711494555.6 -1906811199661176.5 -701852259950522.2 -1343976742021282.8 -1326249135690624.5 870416398155662.8 1754373648193985.0 2170693955049497.5 1394904757706597.8 559538943099968.4 770704474816722.4 361121379083325.25 231068391914111.0 -20964438662073.926 89297899583967.53 29930428046751.336
-0.2101 0.7969 13159186859213.666 61261803141983.94 -255521783855577.03 -697620107548409.1 -1015939344277791.8 -578192043042470.2 278203116111954.7 1754746502848600.8 3751421604159698.5 6620581498267622.0 6847945273226056.0 6271288568061892.0 4926627093053156.0 4380629136182467.0 3808238004122716.0 6023014813713850.0 6932426033832542.0 7080372847455154.0 5196425831049855.0 3513184663292276.0 2365852631074589.5 862880375902937.5 686354884334538.0 290552287163081.94 39165996186074.56 11357395262808.508
0.1637 6501025231.517394 76051850272689.28 135194112534059.61 -123787480619879.6 341596541514256.25 1130282174843229.0 2494040018487673.5 4731662908581396.0 7603652715932174.0 1.0096701196190006e+16 1.2085340601569184e+16 1.1475307771283038e+16 9239734403456678.0 7218896784694628.0 6334273195187812.0 5431945525249337.0 6439450041296573.0 7474606668040217.0 8164011856053507.0 5447465651772651.0 3782142302306223.0 2165952056346092.0 900714781249024.9 328444388355923.75 79920187761763.61 -117492127914657.08 -79033843035841.73
0.018 26078695589.781258 82771951027997.23 -29633213074508.344 297083718309446.7 1411369245104246.2 2869511036910170.0 4321325934898378.0 7237481444446166.0 1.0387731398542974e+16 1.2236145084770886e+16 1.2854520937520526e+16 1.1270790590299756e+16 7012255198392161.0 3835256515280477.0 3788635870483823.5 4430097566707308.5 4954579680983752.0 5900485159293511.0 7380458087314602.0 6057229269653144.0 3807933036240816.5 1602272729796735.2 105630204408516.7 -254498029993429.22 -106542959141609.3 -25286317183387.316 -2835998239375.4053
-0.8975 31793131345.646843 118336503944299.73 312272176115367.4 764109187761024.4 1878899191572617.5 3569877169181513.0 5523103552128377.0 8382169601271800.0 1.052230807404923e+16 1.1574825112586576e+16 1.2156523111914384e+16 7843486201781598.0 2596057185400593.5 523704833808989.94 903922354636752.9 2594642073555503.5 3561685650963325.0 5775519988840094.0 7612680036279254.0 7188548171422601.0 4346796725091927.0 1432865179727976.2 208946256931954.5 -38441816458224.82 -98550477665512.22 -7826081003125.094 -82724504179.73132
658077980271.8533 842441112608.1747 113570261925803.77 295336957415784.75 976266603217988.2 2476658420618909.0 4673268798500151.0 6531415365696831.0 8628299659648605.0 9712619407166068.0 1.1164966426664712e+16 9600298615178018.0 4873035029288506.0 82162766645117.78 -1463902405965573.8 -501134703154371.8 2593028028540010.0 5503207090045788.0 7517682775967636.0 8316133404524089.0 6710689061761738.0 3801418412326258.5 1874491422251923.5 824026926878196.4 258175287814958.66 -54584095455241.305 -16043212332465.562 -101800653082.5709
715136764688.9103 342240856978.0087 51497857144659.305 161080934341573.06 581747724238485.8 2828998710090137.5 5109621829103970.0 6517522923962342.0 8251470851767968.0 9124554957644252.0 9719458179004346.0 7319973431011074.0 4033681574775846.5 -13395111790045.625 -2258347646499132.5 -324679030555960.1 4478107514707890.0 6695944769061010.0 8610976646574420.0 7580948143101714.0 5200652997364075.0 3430947643508286.0 2245463749323321.5 1316479429837645.8 462830397147628.8 171981187018800.56 7738304133539.589 0.4921
-0.1349 38011.39661739765 769768.4352816704 4607472721916.248 265767296308399.97 2270632237422310.5 4437916044587225.5 6359602658886273.0 7986807714136816.0 8445452379953477.0 7347993800005629.0 4736201854001803.0 2722593637358810.0 -367609297085424.7 -1065746654048889.1 2779554210398802.0 5916860979539507.0 7917829732422120.0 8199945863055749.0 6978655091230030.0 4214764602612610.0 2593735134938749.5 2074077941411062.0 1189749371381078.2 454086186616945.4 80981246339613.88 -641113008366.0704 0.6942
-0.8642 0.2776 -2009271.3896608343 3465293169495.297 486650266020186.1 2213779640078973.8 4431736343497616.0 6286697174693939.0 7701610228098318.0 7514201631516294.0 6420651861150908.0 3891609109956045.0 2731474525051389.5 746720683472285.2 756154746282761.1 4246867505032222.0 8718073611448565.0 8570439319619988.0 7648350793146299.0 5796769948540962.0 3620012339195123.5 2302953471343471.0 1864591591327846.5 1170796143059830.0 619707980527862.1 32869630459145.215 -7826636150212.965 0.4891
0.1476 0.0425 -3767553116.7539024 1623217969152.457 403733669614628.75 2283424064089586.5 3642537051860367.0 5048220212176588.0 6132022527285503.0 6122056602366381.0 4340054012234663.0 2392352744237405.0 516118948729060.0 -1177605088176772.2 227330656164077.8 6131773133098575.0 9380819358457942.0 9133686789230720.0 7531231233158102.0 4703279472209355.0 2193825927128810.0 1503990015894897.0 1068372962907051.9 899226232637853.9 424480729346965.06 -76984071228388.83 -8830651539607.078 0.3247
-0.2031 0.7239 -345332531224.119 19972715114325.44 306036697416758.8 1551533474909031.2 2277207875200335.0 3464115128767171.5 3646094978804416.0 2031370845130325.0 474489474313695.06 -663970664830323.5 -1371348876723780.8 -2011238084960347.2 260150235212098.0 6777523650391117.0 8563196588503716.0 8827645645422126.0 6813358193235344.0 4307917961223913.0 1003340980518256.4 535597125594268.0 1037288339734706.4 637721928621968.1 170592194017128.38 -94044606355496.8 -10386856336176.793 -7.428692685017084
0.2658 -0.6849 -4242715628700.42 -220001504619110.97 -54608285688419.375 695307007202935.0 811429612416462.8 819144128172341.5 -856359883337377.8 -2187431166913126.8 -2430156761520124.5 -2783862284189811.5 -2787643609491435.0 -2939613505278134.0 626799934738976.2 6113395746877503.0 7042942433519091.0 6064851160253343.0 5810528790871149.0 4070832697983297.5 543644399542115.75 13919224149383.406 -187518627666381.5 11505054125117.705 -302304695505988.25 -292577914321569.7 -3719032971597.463 -1050506937064.3845
-0.2818 0.7099 -17475608185557.926 -318620298969103.44 -318262794656446.8 -211892254829145.53 -1220163189621392.5 -1474449313697473.0 -2640956892852151.0 -4394646579584580.5 -4453063613406450.5 -4241562916900954.0 -4163671045624849.0 -3312374489829262.0 1614762913516981.8 6574037908803964.0 5548148028052783.0 3908500463107067.0 3198994276883225.0 1927624919053964.0 537882903372429.75 -343412051179481.2 -1317666645989114.0 -1438994962154317.5 -1151327563593579.0 -584403860405434.8 -5028866547425.713 -349982916860.1702
0.0952 149.4786749431422 -21135760743722.6 -355907322567413.0 -627620641515531.4 -764376283796978.8 -2077478269139837.0 -3085957500027984.0 -3531328640073459.0 -4463791730993219.0 -5136498459409978.0 -4972059518728184.0 -3739136631104230.0 477465441560232.5 5121662600409751.0 6480731048965426.0 3669918412931168.5 2284601548639538.5 1829884822930800.2 57522893660561.81 -751009461088276.1 -1734393817496178.5 -1991831680455702.2 -2190842368929702.2 -1322660886147655.8 -581384069897705.6 -1827694766088.026 0.4577
0.2391 96.79521321857142 -5885950264670.425 -356474588853660.0 -921140018017372.9 -1380888335930590.2 -1965854775804726.0 -2926693737928344.0 -4279706242647236.0 -4266466043775152.0 -3780546572008833.0 -2225206466475005.0 347411438865718.6 3931402695614942.0 5760068526450124.0 4645633896461875.0 3000832424365743.0 1473239220346741.2 1005446701342139.8 -586239213820006.0 -1941027375098873.8 -2770596485853495.0 -2349217830369227.0 -1875413247687079.8 -945032979823453.6 -756537436082493.0 -18451617592.15133 0.4638
-0.6196 -0.1318 -68236287125.19072 -166811712207551.0 -686516623863594.2 -1371589396978311.5 -1905732036474093.0 -2320942921598007.0 -2281022504739523.5 -1857272325136274.8 230020863983562.2 2448854730020724.0 4437165814849936.0 5643474020709838.0 4551133950118297.0 2941508080159203.0 2369432220471087.0 897982092307465.5 435281775153355.5 -1086658464548640.8 -1436408479348067.5 -1557199745260061.2 -1533872164379729.8 -1085187518371671.5 -670571275697640.8 -279024129830188.28 -2755056737.5442348 -0.165
