18414.145920273797 27942.07771583051 18295.90875193054 17536.985502250795 29081.808831673934 17855.31629703253 -48520.992997408 -54943.084044139425 15551.386368294265 -55258.494147620324 28312.36909657309 17071.92172659492 20521.104471364783 -20237.86407329173 -20480.86300416701 -23013.760979800278 -11523.5741294377 27641.74616489619 -55619.47014171127 28439.0150889969 18422.652265329012 27309.192204587045 -49036.52822491758 9878.51059403907 28037.17646752723 5664.834410373531 15716.11421842454 22653.844761409575 -31730.344316506056 26977.090056932517 8480.625946994247 17465.80641551561 -51445.23124768077 -46132.726642343434 -46169.40224289826 9433.325960781523 -56800.30601245245 4293.335655721511 21256.24360901927 -45576.74728581836 20117.695846699677 21390.59290910197 7710.275715040394 15803.845545831555 -45698.15491961501 16264.761931815736 -3183.8042604978673 11704.45981716526 -35064.020433283265 15420.619401788681 -44322.976954489226 5206.04944273674 -29826.47045183469 44823.26991170421 -1493.8687763953917 -56048.1156828284 -57067.80975327087 21499.128820840084 33055.10431057631 15514.758505261474 20525.287370791295 -28708.507068434723 17607.23700095649 12770.910070740327
-18589.649709167636 -32890.65299905949 -2987.3143913869053 -3181.0955920058905 -34723.07976439821 17125.916841726485 17172.12960357156 19511.25717044447 -5350.646031092574 31607.754080964096 -33769.405072990114 -18656.411678000524 -20162.324620888445 33009.26531689075 34524.49114293543 32621.36648652394 27652.05181427356 -32580.010158276214 27547.204162211376 -33505.28404063531 1440.1496256539906 -32523.506763473863 23271.281475596003 9914.831021160448 -32612.207451728376 27115.5364034283 17811.412699609537 -27813.943000160667 30361.461995953818 -31908.529225584487 -24466.96690785419 -21539.721710276244 31260.82859577561 13283.910783693413 7989.769670456975 24129.829374911293 28474.007413022908 15114.745653504764 -16687.9186429978 28645.04235102501 -34290.87940013928 -22210.184164603535 24316.896577536943 -18051.100712305724 5807.374316957289 -29130.573152001547 28111.314196439653 16146.877975914082 32463.367731327206 -17848.566788418553 3017.491814680847 16253.851863844517 33851.237839758105 -25229.930994652434 25026.029281565952 31686.585282712178 19870.93053679377 -16805.807677033878 -36341.13015859265 3939.5714968304783 -20972.844619615204 33358.122770202055 -20810.4317397727 -12786.607138835938
-8051.779688888628 -25397.376267395462 4298.554193095996 3747.60996012989 -24709.506610773515 7024.633452161562 10868.488719823275 -3214.4275894896728 2342.562652890219 6022.545970836756 -25728.551018323702 -10416.00102428308 -4304.906138522301 7826.774253292005 6686.914296022701 -726.7033145508224 8098.340817421485 -26151.526460025005 -3708.550039564152 -24107.456348721953 6386.395931846973 -27987.767851339544 4668.145090787142 11876.187100492396 -25724.038781698648 3439.5787189388147 7296.346992003507 -19281.74526163664 5852.127739463209 -27678.32910616706 3076.1578930628166 -7501.588694235884 9640.174772603927 9581.941027514446 5644.121341423839 7929.130866154331 -918.2288576614798 15667.363320397477 215.2304605189588 10822.992735302074 -3194.272050921212 -14432.82900487864 9453.524182723566 -14349.837994974192 8913.771619306288 1427.633534063365 11514.888144045093 9601.670889207642 5791.994101338337 -9681.507381517858 4825.431070141655 34268.459991349875 4172.181299102607 27503.701382829226 10038.309376941452 26.628352091360966 7321.5823580518 583.4145786718391 7606.427599123015 8611.130746200008 -7877.2265787566885 4300.684734979966 -16312.245353007746 -10134.396173562742
-293.97780918642366 -7013.314535493056 11231.1366508998 11709.741734251667 -8800.99994572505 25722.74821856725 -34398.164781200845 -28946.687672780892 7465.012858115419 -10308.672318519784 -8054.375409928676 655.5620517005868 -6612.810073208875 19774.50872624076 20727.830351252844 21735.54103707355 15160.54592701175 -6248.524537472073 -16277.552837636938 -9061.981242196965 14837.694032516387 -5514.964560065499 -24183.48447566779 10909.286171520213 -4927.125710366286 29768.35473927699 24819.441748967398 -3440.248553360012 13313.421635083516 -4735.065790094 -41560.22507845064 -7715.850154978923 -5199.548584393649 -36497.162156750026 -35034.16444866896 25381.732647214314 -14359.195723982131 9214.026865524285 3551.7741395763883 -8568.019648688747 -41930.87485124546 -3587.2432738237467 23586.121320591352 3719.7576165522387 -38901.33289589762 -41693.427946907665 19289.30300989503 20662.992362888992 13685.508973299546 -1044.6450288487104 -33965.24277402636 -13908.97315645936 19616.72392141681 -9726.397487343214 16686.78919117161 -9702.255824258042 -39390.66140336999 3913.0285124738 -37286.74768208761 14570.84026962295 -6221.25318270798 19420.405540563195 -1762.6514287870243 4925.325424885629
9466.756412442955 19284.853107275736 -9059.96760691837 -8474.197408164593 20411.29848188402 -31461.03909030146 29675.950379725455 27139.421515238515 -4027.946364180558 6559.616320487596 19873.680944087 10575.043940536196 12742.119184223922 -25641.8278693919 -25931.77158596253 -21263.269591079486 -22551.217603858324 19099.35731885234 15750.806324025041 19613.008564983473 -13643.283170032673 18997.97716463791 19160.783467746085 -14782.776203485306 18595.46450506211 -34923.45890605699 -29887.963655952382 15994.9853085568 -13298.47628183424 18687.807950605154 33705.32282763542 13323.026384894732 1578.7851567093412 30949.521446272516 33597.87774766535 -32047.175548973897 14584.653452715103 -16229.188200965065 3490.8481574342995 3046.5385060310728 35581.7182240955 14469.004959614058 -30983.637183414998 8422.794745948948 36526.91710815245 33589.61924689931 -27546.835336785065 -24365.234014937905 -13995.740878531393 9692.881500840722 35151.59370968007 -6138.853042592151 -18541.62431785542 1102.8203305584216 -24216.238557554916 8823.616125439818 34091.172080578144 3155.128338858254 30765.02007233479 -14511.307641810412 13812.406837858402 -18512.759751552192 12632.916130781676 4080.124814498171
5844.788680083104 6165.239923354101 6018.3553916081255 7130.953110580864 4930.148876426974 10946.831090747091 -25760.17548395087 -22693.45076566817 5161.229889724106 -19715.193848645722 5584.234103607678 6367.156310656673 3908.0453790520955 215.5972252057686 444.6303984577089 4037.4448987299293 1284.9211448584283 5910.798443988412 -18115.650516587964 4596.688150608147 6492.416854966077 6592.256990603936 -23100.97285318249 2716.2887606513605 6898.969820008155 11218.04344836903 10375.839037711505 3408.1201142402974 -4301.5346875954965 7225.768141063337 -20418.554872459852 -550.1150137055392 -18471.930035252517 -25285.44374034869 -24536.534617331217 9514.720224835568 -18734.168624342692 -490.5688039063198 5580.837760182734 -19699.799836591475 -16337.07701510153 8263.281399136193 7809.431251048793 6145.906231980176 -26774.235650297964 -19333.260365584843 5049.154596572884 6936.515543780385 -7120.470716677606 3899.1380028640183 -22919.192926296557 -13170.862197572831 -630.4382348513543 -833.0156714684513 4966.455152796411 -17156.359770134935 -27411.006143909923 5626.660400014536 -13870.246772938359 5848.966770092507 4883.423247728457 -516.3468405817566 6460.357855006343 3807.5175092438844
4047.2689921130586 -6121.170081743228 168.72808599530572 4033.234411634895 -5471.382650263146 -12187.73299888796 27617.823553425256 -11319.048380760945 5262.059568391278 -17267.98141863771 -6413.020507898867 3577.8316443380645 11619.299242894656 -18458.00689325261 -25015.558351837153 -28857.65025236468 -7920.495560511494 -8508.391496658387 -22987.903342459966 -5176.804548243705 -770.300529753466 -10610.913701036363 3980.1492590082626 10165.178236739413 -5851.155194421126 -24947.44775200443 -10716.144499325452 -3270.6610428833887 -18115.935087678758 -9170.911458653303 17754.70075682595 7442.353204493802 -16440.494083662958 25094.343860390258 14707.07806085641 -14169.38041921518 -19459.103527143292 11041.192553079112 6254.6475669594565 -9993.502008626921 18955.25549540069 5615.692178723084 -11448.840316654288 -6314.389909497804 23976.309011112728 19641.85190764094 -3653.4489847741206 -6970.901394575657 -26977.4168339927 4582.334774291803 20676.32481715074 46892.290601446424 -25103.732875821748 54344.95554239519 -2066.7158114304166 -25461.521715971754 28125.73718127298 7350.357977623484 36130.35637681493 4315.8843291379235 10207.991248254237 -24443.957475012918 -844.5718050869932 -6859.040534152653
-8344.504940002045 9760.006349347052 -14878.803258738924 -18373.740214431786 11041.566720713125 -16520.37465873752 11225.514709944257 35303.49680015556 -13663.262900761616 28478.597651600343 11301.006376573509 -8273.11305921201 -12728.492274069944 1739.0060308597715 4789.446788768801 5817.692735811695 -4734.440934271739 11579.706451253398 34590.91285795288 11597.976253831584 -16892.51719009806 12770.22266335402 23873.271601880184 -19613.473851687962 8213.919582703076 -9301.123738145767 -17710.768620406747 8095.865857279725 8068.1682303651105 10466.278931802246 16893.29333606077 1608.793156603028 25667.199878062867 14247.507713694737 20688.28723153176 -15554.159333594695 31311.389422494747 -17201.34758555549 -13833.182241571356 23186.883585074735 15290.405039167019 -9626.085902374001 -15138.717133338701 1060.4530465210173 16720.806595476864 14812.681505855313 -17193.338986234725 -17039.102831245127 16836.20332796089 -2594.861021984451 16525.96895183016 -31634.04516248266 6757.720507895579 -42637.785496132514 -15488.653279050766 32457.944452667245 15215.733616590665 -14702.676308509215 -4605.767047463418 -18959.662182666347 -11014.366030270729 6067.389264602658 -744.801389789166 3633.625871472934
-460.48693194161933 -6014.593785824998 943.6092810373461 649.2626779039156 -6632.914217592675 5412.97141226346 -5657.807628000632 8237.71354405905 -1031.9330693182674 10726.436299339086 -6226.99743040785 -558.5785385992112 -1272.6139474622473 10913.904544269635 12175.663046451496 13108.045922799782 7049.949106369753 -5868.786884371189 11620.377003886832 -6863.67312477036 1239.2013233989273 -5127.781874984359 1335.2832423645286 -1428.7383534274322 -6034.120567851222 11364.739355932035 5488.926821484557 -7518.69294346022 10219.282465615692 -5189.201938792403 -9951.9045704537 -5926.727266357189 8903.832813007177 -4784.608847456684 -1282.9942531106635 8095.83253980612 10680.339403899361 -1859.9001750227444 -933.2744805039151 5714.164578588079 -12473.908326862676 -1178.0707757265886 7052.145142986939 -341.08953756782057 -4162.174172914262 -11202.25744089844 8227.161686702795 4507.953180686865 10776.68221733809 -3257.6349789382325 -2998.386144967445 -9526.803801501761 11983.207484009687 -17902.20578004428 5688.186291742533 12495.95463835727 -4173.546643926896 -1307.4603652962041 -18722.30533965141 -259.96493208171614 -2040.345675043137 11862.701345283089 -1433.3800070064917 -1690.61800711672
-2032.702625726551 14284.831473708813 -14030.219497522896 -14778.628282149835 14872.881778054512 -23919.628764571353 17777.32942407055 30924.967822941537 -11708.93237206226 19155.549610195718 15120.85441870796 -343.1555737316053 -3709.675423383672 -9141.710360822435 -7920.907781922337 -3458.507443143614 -12515.839781855724 15125.581557812533 27199.86422988407 14468.69314614822 -17512.57494382714 16094.84712771666 20031.88441638561 -19635.5401760022 13403.360930765037 -19399.035680111472 -23193.396742516445 11172.52666001449 -368.1650928668048 15325.109438888001 16487.483468639184 3394.115578046626 14506.388234831009 19542.654955333484 24395.934010074747 -22713.660511919403 25220.74605344981 -19549.703582777518 -8895.072428618008 12422.226323704537 18281.710838907256 1296.0675748312333 -22357.194156519967 3903.9013675116103 23590.55348771926 15622.978979117877 -20614.359665363692 -21185.230428884508 3604.0898112208442 832.3232199225627 24009.232236296222 -28241.150338768846 -2278.8857718195486 -31445.343537846195 -19140.248369786394 22877.2639419252 23417.797271190244 -9311.88647764272 3269.3233418843797 -19069.853360586905 -1302.8790182386515 -2827.6558200494537 5207.800336705632 2253.2256628271316
